{"learner":{"attributes":{"best_iteration":"578","best_score":"0.7695478177976152","scikit_learn":"{\"_estimator_type\": \"classifier\"}"},"feature_names":["NAME_CONTRACT_TYPE","CODE_GENDER","FLAG_OWN_CAR","FLAG_OWN_REALTY","CNT_CHILDREN","AMT_INCOME_TOTAL","AMT_CREDIT","AMT_ANNUITY","AMT_GOODS_PRICE","NAME_TYPE_SUITE","NAME_INCOME_TYPE","NAME_EDUCATION_TYPE","NAME_FAMILY_STATUS","NAME_HOUSING_TYPE","REGION_POPULATION_RELATIVE","DAYS_BIRTH","DAYS_EMPLOYED","DAYS_REGISTRATION","DAYS_ID_PUBLISH","FLAG_MOBIL","FLAG_EMP_PHONE","FLAG_WORK_PHONE","FLAG_CONT_MOBILE","FLAG_PHONE","FLAG_EMAIL","OCCUPATION_TYPE","CNT_FAM_MEMBERS","REGION_RATING_CLIENT","REGION_RATING_CLIENT_W_CITY","WEEKDAY_APPR_PROCESS_START","HOUR_APPR_PROCESS_START","REG_REGION_NOT_LIVE_REGION","REG_REGION_NOT_WORK_REGION","LIVE_REGION_NOT_WORK_REGION","REG_CITY_NOT_LIVE_CITY","REG_CITY_NOT_WORK_CITY","LIVE_CITY_NOT_WORK_CITY","ORGANIZATION_TYPE","EXT_SOURCE_1","EXT_SOURCE_2","EXT_SOURCE_3","APARTMENTS_AVG","BASEMENTAREA_AVG","YEARS_BEGINEXPLUATATION_AVG","ELEVATORS_AVG","ENTRANCES_AVG","FLOORSMAX_AVG","LANDAREA_AVG","LIVINGAREA_AVG","NONLIVINGAREA_AVG","APARTMENTS_MODE","BASEMENTAREA_MODE","YEARS_BEGINEXPLUATATION_MODE","ELEVATORS_MODE","ENTRANCES_MODE","FLOORSMAX_MODE","LANDAREA_MODE","LIVINGAREA_MODE","NONLIVINGAREA_MODE","APARTMENTS_MEDI","BASEMENTAREA_MEDI","YEARS_BEGINEXPLUATATION_MEDI","ELEVATORS_MEDI","ENTRANCES_MEDI","FLOORSMAX_MEDI","LANDAREA_MEDI","LIVINGAREA_MEDI","NONLIVINGAREA_MEDI","HOUSETYPE_MODE","TOTALAREA_MODE","WALLSMATERIAL_MODE","EMERGENCYSTATE_MODE","OBS_30_CNT_SOCIAL_CIRCLE","DEF_30_CNT_SOCIAL_CIRCLE","OBS_60_CNT_SOCIAL_CIRCLE","DEF_60_CNT_SOCIAL_CIRCLE","DAYS_LAST_PHONE_CHANGE","FLAG_DOCUMENT_2","FLAG_DOCUMENT_3","FLAG_DOCUMENT_4","FLAG_DOCUMENT_5","FLAG_DOCUMENT_6","FLAG_DOCUMENT_7","FLAG_DOCUMENT_8","FLAG_DOCUMENT_9","FLAG_DOCUMENT_10","FLAG_DOCUMENT_11","FLAG_DOCUMENT_12","FLAG_DOCUMENT_13","FLAG_DOCUMENT_14","FLAG_DOCUMENT_15","FLAG_DOCUMENT_16","FLAG_DOCUMENT_17","FLAG_DOCUMENT_18","FLAG_DOCUMENT_19","FLAG_DOCUMENT_20","FLAG_DOCUMENT_21","AMT_REQ_CREDIT_BUREAU_HOUR","AMT_REQ_CREDIT_BUREAU_DAY","AMT_REQ_CREDIT_BUREAU_WEEK","AMT_REQ_CREDIT_BUREAU_MON","AMT_REQ_CREDIT_BUREAU_QRT","AMT_REQ_CREDIT_BUREAU_YEAR","DAYS_EMPLOYED_ANOM","ANNUITY_INCOME_PERC","PAYMENT_RATE","GOODS_DIFF","DAYS_EMPLOYED_PERC","EXT_SOURCES_MEAN"],"feature_types":["int","int","int","int","int","float","float","float","float","int","int","int","int","int","float","int","float","float","int","int","int","int","int","int","int","int","float","int","int","int","int","int","int","int","int","int","int","int","float","float","float","float","float","float","float","float","float","float","float","float","float","float","float","float","float","float","float","float","float","float","float","float","float","float","float","float","float","float","int","float","int","int","float","float","float","float","float","int","int","int","int","int","int","int","int","int","int","int","int","int","int","int","int","int","int","int","int","float","float","float","float","float","float","int","float","float","float","float","float"],"gradient_booster":{"model":{"cats":{"enc":[],"feature_segments":[],"sorted_idx":[]},"gbtree_model_param":{"num_parallel_tree":"1","num_trees":"629"},"iteration_indptr":[0,1,2,3,4,5,6,7,8,9,10,11,12,13,14,15,16,17,18,19,20,21,22,23,24,25,26,27,28,29,30,31,32,33,34,35,36,37,38,39,40,41,42,43,44,45,46,47,48,49,50,51,52,53,54,55,56,57,58,59,60,61,62,63,64,65,66,67,68,69,70,71,72,73,74,75,76,77,78,79,80,81,82,83,84,85,86,87,88,89,90,91,92,93,94,95,96,97,98,99,100,101,102,103,104,105,106,107,108,109,110,111,112,113,114,115,116,117,118,119,120,121,122,123,124,125,126,127,128,129,130,131,132,133,134,135,136,137,138,139,140,141,142,143,144,145,146,147,148,149,150,151,152,153,154,155,156,157,158,159,160,161,162,163,164,165,166,167,168,169,170,171,172,173,174,175,176,177,178,179,180,181,182,183,184,185,186,187,188,189,190,191,192,193,194,195,196,197,198,199,200,201,202,203,204,205,206,207,208,209,210,211,212,213,214,215,216,217,218,219,220,221,222,223,224,225,226,227,228,229,230,231,232,233,234,235,236,237,238,239,240,241,242,243,244,245,246,247,248,249,250,251,252,253,254,255,256,257,258,259,260,261,262,263,264,265,266,267,268,269,270,271,272,273,274,275,276,277,278,279,280,281,282,283,284,285,286,287,288,289,290,291,292,293,294,295,296,297,298,299,300,301,302,303,304,305,306,307,308,309,310,311,312,313,314,315,316,317,318,319,320,321,322,323,324,325,326,327,328,329,330,331,332,333,334,335,336,337,338,339,340,341,342,343,344,345,346,347,348,349,350,351,352,353,354,355,356,357,358,359,360,361,362,363,364,365,366,367,368,369,370,371,372,373,374,375,376,377,378,379,380,381,382,383,384,385,386,387,388,389,390,391,392,393,394,395,396,397,398,399,400,401,402,403,404,405,406,407,408,409,410,411,412,413,414,415,416,417,418,419,420,421,422,423,424,425,426,427,428,429,430,431,432,433,434,435,436,437,438,439,440,441,442,443,444,445,446,447,448,449,450,451,452,453,454,455,456,457,458,459,460,461,462,463,464,465,466,467,468,469,470,471,472,473,474,475,476,477,478,479,480,481,482,483,484,485,486,487,488,489,490,491,492,493,494,495,496,497,498,499,500,501,502,503,504,505,506,507,508,509,510,511,512,513,514,515,516,517,518,519,520,521,522,523,524,525,526,527,528,529,530,531,532,533,534,535,536,537,538,539,540,541,542,543,544,545,546,547,548,549,550,551,552,553,554,555,556,557,558,559,560,561,562,563,564,565,566,567,568,569,570,571,572,573,574,575,576,577,578,579,580,581,582,583,584,585,586,587,588,589,590,591,592,593,594,595,596,597,598,599,600,601,602,603,604,605,606,607,608,609,610,611,612,613,614,615,616,617,618,619,620,621,622,623,624,625,626,627,628,629],"tree_info":[0,0,0,0,0,0,0,0,0,0,0,0,0,0,0,0,0,0,0,0,0,0,0,0,0,0,0,0,0,0,0,0,0,0,0,0,0,0,0,0,0,0,0,0,0,0,0,0,0,0,0,0,0,0,0,0,0,0,0,0,0,0,0,0,0,0,0,0,0,0,0,0,0,0,0,0,0,0,0,0,0,0,0,0,0,0,0,0,0,0,0,0,0,0,0,0,0,0,0,0,0,0,0,0,0,0,0,0,0,0,0,0,0,0,0,0,0,0,0,0,0,0,0,0,0,0,0,0,0,0,0,0,0,0,0,0,0,0,0,0,0,0,0,0,0,0,0,0,0,0,0,0,0,0,0,0,0,0,0,0,0,0,0,0,0,0,0,0,0,0,0,0,0,0,0,0,0,0,0,0,0,0,0,0,0,0,0,0,0,0,0,0,0,0,0,0,0,0,0,0,0,0,0,0,0,0,0,0,0,0,0,0,0,0,0,0,0,0,0,0,0,0,0,0,0,0,0,0,0,0,0,0,0,0,0,0,0,0,0,0,0,0,0,0,0,0,0,0,0,0,0,0,0,0,0,0,0,0,0,0,0,0,0,0,0,0,0,0,0,0,0,0,0,0,0,0,0,0,0,0,0,0,0,0,0,0,0,0,0,0,0,0,0,0,0,0,0,0,0,0,0,0,0,0,0,0,0,0,0,0,0,0,0,0,0,0,0,0,0,0,0,0,0,0,0,0,0,0,0,0,0,0,0,0,0,0,0,0,0,0,0,0,0,0,0,0,0,0,0,0,0,0,0,0,0,0,0,0,0,0,0,0,0,0,0,0,0,0,0,0,0,0,0,0,0,0,0,0,0,0,0,0,0,0,0,0,0,0,0,0,0,0,0,0,0,0,0,0,0,0,0,0,0,0,0,0,0,0,0,0,0,0,0,0,0,0,0,0,0,0,0,0,0,0,0,0,0,0,0,0,0,0,0,0,0,0,0,0,0,0,0,0,0,0,0,0,0,0,0,0,0,0,0,0,0,0,0,0,0,0,0,0,0,0,0,0,0,0,0,0,0,0,0,0,0,0,0,0,0,0,0,0,0,0,0,0,0,0,0,0,0,0,0,0,0,0,0,0,0,0,0,0,0,0,0,0,0,0,0,0,0,0,0,0,0,0,0,0,0,0,0,0,0,0,0,0,0,0,0,0,0,0,0,0,0,0,0,0,0,0,0,0,0,0,0,0,0,0,0,0,0,0,0,0,0,0,0,0,0,0,0,0,0,0,0,0,0,0,0,0,0,0,0,0,0,0,0,0,0,0,0,0,0,0,0,0,0,0,0,0,0,0,0,0,0,0,0,0,0,0,0,0,0,0,0,0,0,0,0,0,0,0,0,0,0,0,0,0,0,0,0,0,0,0,0,0,0,0,0],"trees":[{"base_weights":[-4.4155153E-3,6.254286E-1,-6.601039E-1,1.0308037E0,2.9829687E-1,-2.93888E-1,-9.1567796E-1,1.2206784E0,8.468345E-1,4.7314507E-1,9.659499E-2,-1.1722508E-1,-5.015973E-1,-7.680743E-1,-1.1998918E0,6.459853E-2,3.8314085E-2,4.5673113E-2,2.221354E-2,3.7257176E-2,1.7868005E-2,1.3288314E-2,-9.727266E-3,4.7013154E-3,-1.5842656E-2,-1.5144439E-2,-3.3253837E-2,-1.8652184E-2,-4.3622103E-2,-4.8015237E-2,-6.538895E-2],"categories":[],"categories_nodes":[],"categories_segments":[],"categories_sizes":[],"default_left":[1,0,0,0,0,1,0,0,0,0,0,0,0,1,0,0,0,0,0,0,0,0,0,0,0,0,0,0,0,0,0],"id":0,"left_children":[1,3,5,7,9,11,13,15,17,19,21,23,25,27,29,-1,-1,-1,-1,-1,-1,-1,-1,-1,-1,-1,-1,-1,-1,-1,-1],"loss_changes":[3.720065E4,6.092453E3,4.1304316E3,7.1568555E2,8.967114E2,6.6564246E2,1.0895098E3,3.2602832E2,2.791958E2,4.286787E2,5.816424E2,4.1351605E2,2.706526E2,7.051279E2,2.2835742E2,0E0,0E0,0E0,0E0,0E0,0E0,0E0,0E0,0E0,0E0,0E0,0E0,0E0,0E0,0E0,0E0],"parents":[2147483647,0,0,1,1,2,2,3,3,4,4,5,5,6,6,7,7,8,8,9,9,10,10,11,11,12,12,13,13,14,14],"right_children":[2,4,6,8,10,12,14,16,18,20,22,24,26,28,30,-1,-1,-1,-1,-1,-1,-1,-1,-1,-1,-1,-1,-1,-1,-1,-1],"split_conditions":[4.7320655E-1,3.3193442E-1,5.6403726E-1,2.4430414E-1,4.1364762E-1,-3.8016E4,6.673393E-1,5.148E3,5.454E3,2.692858E-1,-2.01465E4,1.314289E-1,1.68E3,2.7213368E-1,1E0,6.459853E-2,3.8314085E-2,4.5673113E-2,2.221354E-2,3.7257176E-2,1.7868005E-2,1.3288314E-2,-9.727266E-3,4.7013154E-3,-1.5842656E-2,-1.5144439E-2,-3.3253837E-2,-1.8652184E-2,-4.3622103E-2,-4.8015237E-2,-6.538895E-2],"split_indices":[108,108,108,108,108,106,108,16,16,40,106,107,16,40,1,0,0,0,0,0,0,0,0,0,0,0,0,0,0,0,0],"split_type":[0,0,0,0,0,0,0,0,0,0,0,0,0,0,0,0,0,0,0,0,0,0,0,0,0,0,0,0,0,0,0],"sum_hessian":[9.007625E4,4.5943594E4,4.4132656E4,2.0517086E4,2.5426506E4,1.8140709E4,2.599195E4,1.0093713E4,1.0423373E4,1.3619178E4,1.1807328E4,9.803827E3,8.336882E3,1.7109828E4,8.88212E3,8.723246E3,1.3704668E3,8.942107E3,1.4812656E3,4.0648123E3,9.554366E3,7.468016E3,4.339312E3,4.7635005E3,5.0403267E3,3.7642751E3,4.5726064E3,3.5766877E3,1.3533142E4,2.7608804E3,6.1212397E3],"tree_param":{"num_deleted":"0","num_feature":"109","num_nodes":"31","size_leaf_vector":"1"}},{"base_weights":[-3.8276985E-3,5.969687E-1,-6.307679E-1,9.735773E-1,2.9587898E-1,-2.7788872E-1,-8.775766E-1,1.1287023E0,7.8388554E-1,4.794024E-1,9.443364E-2,-9.790603E-2,-4.697697E-1,-7.510152E-1,-1.1648345E0,6.28353E-2,4.5022927E-2,2.4501791E-2,4.355723E-2,3.0530635E-2,1.3526158E-2,1.3117835E-2,-7.5768307E-3,-1.46733E-2,6.0521346E-3,-1.5973E-2,-3.457525E-2,-1.8392302E-2,-4.2497203E-2,-4.555018E-2,-6.3211404E-2],"categories":[],"categories_nodes":[],"categories_segments":[],"categories_sizes":[],"default_left":[1,0,0,0,0,1,0,0,0,0,0,1,0,1,1,0,0,0,0,0,0,0,0,0,0,0,0,0,0,0,0],"id":1,"left_children":[1,3,5,7,9,11,13,15,17,19,21,23,25,27,29,-1,-1,-1,-1,-1,-1,-1,-1,-1,-1,-1,-1,-1,-1,-1,-1],"loss_changes":[3.4059637E4,5.2356406E3,3.8536094E3,6.0276953E2,9.4866675E2,6.289404E2,9.457422E2,3.285166E2,2.3629639E2,3.6785547E2,5.0538565E2,4.0248157E2,2.9356775E2,6.8493066E2,1.9970996E2,0E0,0E0,0E0,0E0,0E0,0E0,0E0,0E0,0E0,0E0,0E0,0E0,0E0,0E0,0E0,0E0],"parents":[2147483647,0,0,1,1,2,2,3,3,4,4,5,5,6,6,7,7,8,8,9,9,10,10,11,11,12,12,13,13,14,14],"right_children":[2,4,6,8,10,12,14,16,18,20,22,24,26,28,30,-1,-1,-1,-1,-1,-1,-1,-1,-1,-1,-1,-1,-1,-1,-1,-1],"split_conditions":[4.7320655E-1,3.3193442E-1,5.6403726E-1,2.569923E-1,4.1143692E-1,-4.455E4,6.749076E-1,5.1729655E-1,1E0,1.5733607E-1,1.631791E-1,4.462E-2,1.8607292E-1,2.2383131E-1,4.5432106E-1,6.28353E-2,4.5022927E-2,2.4501791E-2,4.355723E-2,3.0530635E-2,1.3526158E-2,1.3117835E-2,-7.5768307E-3,-1.46733E-2,6.0521346E-3,-1.5973E-2,-3.457525E-2,-1.8392302E-2,-4.2497203E-2,-4.555018E-2,-6.3211404E-2],"split_indices":[108,108,108,108,108,106,108,40,78,107,107,105,107,40,40,0,0,0,0,0,0,0,0,0,0,0,0,0,0,0,0],"split_type":[0,0,0,0,0,0,0,0,0,0,0,0,0,0,0,0,0,0,0,0,0,0,0,0,0,0,0,0,0,0,0],"sum_hessian":[9.0422586E4,4.617406E4,4.4248527E4,2.0513352E4,2.5660709E4,1.8211883E4,2.6036645E4,1.1282149E4,9.231201E3,1.3426939E4,1.223377E4,9.398078E3,8.813806E3,1.8076178E4,7.9604683E3,7.225465E3,4.0566848E3,2.1150996E3,7.116102E3,8.245498E3,5.181442E3,7.270296E3,4.963473E3,4.9640034E3,4.4340747E3,5.2543994E3,3.559406E3,3.7102898E3,1.4365887E4,2.2428508E3,5.717617E3],"tree_param":{"num_deleted":"0","num_feature":"109","num_nodes":"31","size_leaf_vector":"1"}},{"base_weights":[-1.1234652E-3,5.683621E-1,-5.9321296E-1,9.0092474E-1,2.5474235E-1,-2.3959355E-1,-8.175365E-1,1.0977709E0,7.405138E-1,3.884587E-1,1.7728824E-2,-5.095048E-2,-4.0679246E-1,-6.9857746E-1,-1.1055895E0,6.648531E-2,4.9652215E-2,1.646003E-2,3.9516944E-2,2.4055801E-2,6.1189174E-3,3.8581414E-3,-3.606118E-2,8.853585E-3,-1.45217655E-2,-1.7936371E-2,-4.6197113E-2,-3.9230358E-2,-1.770805E-2,-4.2347055E-2,-6.0359742E-2],"categories":[],"categories_nodes":[],"categories_segments":[],"categories_sizes":[],"default_left":[1,0,0,0,0,0,0,0,0,0,0,1,0,0,1,0,0,0,0,0,0,0,0,0,0,0,0,0,0,0,0],"id":2,"left_children":[1,3,5,7,9,11,13,15,17,19,21,23,25,27,29,-1,-1,-1,-1,-1,-1,-1,-1,-1,-1,-1,-1,-1,-1,-1,-1],"loss_changes":[3.0499816E4,4.8086523E3,3.517622E3,7.0578125E2,7.520814E2,5.4293256E2,9.2900195E2,2.426836E2,2.5248438E2,3.7398096E2,3.7601648E2,4.4180582E2,2.265039E2,5.68792E2,2.0734473E2,0E0,0E0,0E0,0E0,0E0,0E0,0E0,0E0,0E0,0E0,0E0,0E0,0E0,0E0,0E0,0E0],"parents":[2147483647,0,0,1,1,2,2,3,3,4,4,5,5,6,6,7,7,8,8,9,9,10,10,11,11,12,12,13,13,14,14],"right_children":[2,4,6,8,10,12,14,16,18,20,22,24,26,28,30,-1,-1,-1,-1,-1,-1,-1,-1,-1,-1,-1,-1,-1,-1,-1,-1],"split_conditions":[4.7320655E-1,3.4497115E-1,5.579309E-1,2.4430414E-1,1.7922162E-1,1.782E3,6.749076E-1,1.8088798E-1,1.85652E5,1E0,9.305455E-2,1.3119408E-1,9.305455E-2,8.9600956E-1,4.5432106E-1,6.648531E-2,4.9652215E-2,1.646003E-2,3.9516944E-2,2.4055801E-2,6.1189174E-3,3.8581414E-3,-3.606118E-2,8.853585E-3,-1.45217655E-2,-1.7936371E-2,-4.6197113E-2,-3.9230358E-2,-1.770805E-2,-4.2347055E-2,-6.0359742E-2],"split_indices":[108,108,108,108,107,16,108,40,6,11,105,38,105,40,40,0,0,0,0,0,0,0,0,0,0,0,0,0,0,0,0],"split_type":[0,0,0,0,0,0,0,0,0,0,0,0,0,0,0,0,0,0,0,0,0,0,0,0,0,0,0,0,0,0,0],"sum_hessian":[9.0451875E4,4.6106043E4,4.4345832E4,2.237631E4,2.3729732E4,1.7213252E4,2.7132582E4,1.0044495E4,1.2331814E4,1.5170388E4,8.559344E3,8.088576E3,9.124675E3,1.9204861E4,7.9277207E3,3.1209402E3,6.9235547E3,1.3332491E3,1.0998565E4,1.1251473E4,3.9189155E3,7.9229927E3,6.363514E2,4.143582E3,3.944994E3,8.350275E3,7.743992E2,1.5365523E4,3.839338E3,2.238553E3,5.689168E3],"tree_param":{"num_deleted":"0","num_feature":"109","num_nodes":"31","size_leaf_vector":"1"}},{"base_weights":[-4.7226E-3,6.628691E-1,-4.6694627E-1,8.824817E-1,3.7485242E-1,-1.4052245E-1,-7.670957E-1,1.0424546E0,7.1776724E-1,4.5192084E-1,1.606107E-3,-6.0898885E-3,-3.3633026E-1,-6.43944E-1,-1.0505387E0,5.5319935E-2,3.3231232E-2,3.907133E-2,1.7677767E-2,4.6521025E-3,2.604123E-2,8.87591E-3,-1.6608449E-2,5.6609153E-3,-1.585595E-2,-1.395275E-2,-4.793065E-2,-3.569925E-2,-1.0516611E-2,-4.663401E-2,-6.4121954E-2],"categories":[],"categories_nodes":[],"categories_segments":[],"categories_sizes":[],"default_left":[0,0,1,0,0,0,0,0,0,1,0,0,0,0,1,0,0,0,0,0,0,0,0,0,0,0,0,0,0,0,0],"id":3,"left_children":[1,3,5,7,9,11,13,15,17,19,21,23,25,27,29,-1,-1,-1,-1,-1,-1,-1,-1,-1,-1,-1,-1,-1,-1,-1,-1],"loss_changes":[2.774359E4,2.3262578E3,5.20491E3,5.4914355E2,4.577981E2,6.699197E2,9.654092E2,2.5499023E2,2.3819287E2,3.2614282E2,1.600414E2,5.600383E2,3.6898022E2,5.858867E2,2.2787402E2,0E0,0E0,0E0,0E0,0E0,0E0,0E0,0E0,0E0,0E0,0E0,0E0,0E0,0E0,0E0,0E0],"parents":[2147483647,0,0,1,1,2,2,3,3,4,4,5,5,6,6,7,7,8,8,9,9,10,10,11,11,12,12,13,13,14,14],"right_children":[2,4,6,8,10,12,14,16,18,20,22,24,26,28,30,-1,-1,-1,-1,-1,-1,-1,-1,-1,-1,-1,-1,-1,-1,-1,-1],"split_conditions":[4.2790276E-1,3.352293E-1,5.5485904E-1,2.505767E-1,3.376197E-1,1.757403E-1,6.711175E-1,5.148E3,5.148E3,1.3698E4,3.9796862E-1,1E0,9.305455E-2,1.3E1,5.0571287E-1,5.5319935E-2,3.3231232E-2,3.907133E-2,1.7677767E-2,4.6521025E-3,2.604123E-2,8.87591E-3,-1.6608449E-2,5.6609153E-3,-1.585595E-2,-1.395275E-2,-4.793065E-2,-3.569925E-2,-1.0516611E-2,-4.663401E-2,-6.4121954E-2],"split_indices":[108,108,108,108,107,107,108,16,16,7,108,11,105,100,38,0,0,0,0,0,0,0,0,0,0,0,0,0,0,0,0],"split_type":[0,0,0,0,0,0,0,0,0,0,0,0,0,0,0,0,0,0,0,0,0,0,0,0,0,0,0,0,0,0,0],"sum_hessian":[8.990625E4,3.6781758E4,5.312449E4,2.0867914E4,1.5913845E4,2.54491E4,2.767539E4,1.0583629E4,1.0284286E4,1.3190119E4,2.7237249E3,1.5090021E4,1.0359078E4,1.9295193E4,8.380196E3,9.050063E3,1.5335651E3,8.753199E3,1.5310872E3,2.1249377E3,1.1065182E4,1.7839722E3,9.397527E2,1.0906871E4,4.18315E3,9.487309E3,8.7176917E2,1.6611332E4,2.6838613E3,5.559645E3,2.8205513E3],"tree_param":{"num_deleted":"0","num_feature":"109","num_nodes":"31","size_leaf_vector":"1"}},{"base_weights":[5.0124247E-3,5.389282E-1,-5.1706624E-1,8.215715E-1,2.5660792E-1,-2.2537623E-1,-7.5003177E-1,9.92536E-1,6.6655225E-1,4.2450422E-1,6.38902E-2,-4.9091615E-2,-4.1378915E-1,-6.4950275E-1,-1.0175333E0,5.282243E-2,3.0553399E-2,3.6010362E-2,1.1151989E-2,3.251916E-2,1.0822232E-2,8.049854E-3,-1.5054683E-2,7.3696817E-3,-1.21400235E-2,-1.730453E-2,-3.5779912E-2,-2.503301E-2,-4.4125255E-2,-4.302689E-2,-5.666975E-2],"categories":[],"categories_nodes":[],"categories_segments":[],"categories_sizes":[],"default_left":[0,0,1,0,0,1,0,0,0,0,0,0,1,1,0,0,0,0,0,0,0,0,0,0,0,0,0,0,0,0,0],"id":4,"left_children":[1,3,5,7,9,11,13,15,17,19,21,23,25,27,29,-1,-1,-1,-1,-1,-1,-1,-1,-1,-1,-1,-1,-1,-1,-1,-1],"loss_changes":[2.513007E4,3.5564297E3,3.0973164E3,5.896279E2,7.215265E2,6.7228955E2,6.808203E2,2.5753418E2,2.7788135E2,5.599287E2,3.680734E2,3.980959E2,1.9966089E2,6.3845605E2,1.2490527E2,0E0,0E0,0E0,0E0,0E0,0E0,0E0,0E0,0E0,0E0,0E0,0E0,0E0,0E0,0E0,0E0],"parents":[2147483647,0,0,1,1,2,2,3,3,4,4,5,5,6,6,7,7,8,8,9,9,10,10,11,11,12,12,13,13,14,14],"right_children":[2,4,6,8,10,12,14,16,18,20,22,24,26,28,30,-1,-1,-1,-1,-1,-1,-1,-1,-1,-1,-1,-1,-1,-1,-1,-1],"split_conditions":[4.6631262E-1,3.4497115E-1,5.671202E-1,2.505767E-1,-4.158E4,-4.455E4,6.8318814E-1,5.071E3,2.0414E4,4.545E5,4.033E3,1.917E3,2.2140902E-1,2.4924093E-1,-5.7024E4,5.282243E-2,3.0553399E-2,3.6010362E-2,1.1151989E-2,3.251916E-2,1.0822232E-2,8.049854E-3,-1.5054683E-2,7.3696817E-3,-1.21400235E-2,-1.730453E-2,-3.5779912E-2,-2.503301E-2,-4.4125255E-2,-4.302689E-2,-5.666975E-2],"split_indices":[108,108,108,108,106,106,108,16,15,8,16,16,107,38,106,0,0,0,0,0,0,0,0,0,0,0,0,0,0,0,0],"split_type":[0,0,0,0,0,0,0,0,0,0,0,0,0,0,0,0,0,0,0,0,0,0,0,0,0,0,0,0,0,0,0],"sum_hessian":[9.0152E4,4.4570707E4,4.5581293E4,2.2271658E4,2.2299049E4,2.0240572E4,2.534072E4,1.0588561E4,1.1683097E4,1.1916314E4,1.0382734E4,1.0457495E4,9.783076E3,1.8421293E4,6.9194287E3,9.067577E3,1.520984E3,1.0421686E4,1.2614117E3,5.7124697E3,6.203844E3,8.201277E3,2.1814568E3,5.191662E3,5.2658335E3,7.992444E3,1.7906329E3,1.1242622E4,7.178671E3,2.9417341E3,3.9776946E3],"tree_param":{"num_deleted":"0","num_feature":"109","num_nodes":"31","size_leaf_vector":"1"}},{"base_weights":[-2.8110882E-3,5.9351087E-1,-4.3193668E-1,8.05376E-1,3.2930878E-1,-1.5267923E-1,-7.1856165E-1,1.1227722E0,7.267793E-1,4.967883E-1,1.3225247E-1,4.6286974E-3,-3.3968857E-1,-4.8282996E-1,-8.3033395E-1,6.459236E-2,4.788835E-2,4.013642E-2,2.3342486E-2,1.1113449E-2,3.461012E-2,2.273653E-2,4.3111277E-4,-9.846286E-3,1.0648995E-2,-8.697756E-3,-2.493286E-2,-1.3546932E-2,-3.629456E-2,-3.387412E-2,-4.958382E-2],"categories":[],"categories_nodes":[],"categories_segments":[],"categories_sizes":[],"default_left":[1,0,0,0,0,1,0,0,0,1,0,1,1,0,0,0,0,0,0,0,0,0,0,0,0,0,0,0,0,0,0],"id":5,"left_children":[1,3,5,7,9,11,13,15,17,19,21,23,25,27,29,-1,-1,-1,-1,-1,-1,-1,-1,-1,-1,-1,-1,-1,-1,-1,-1],"loss_changes":[2.2952545E4,2.1007656E3,4.1748457E3,5.188174E2,5.512799E2,7.772424E2,6.778008E2,1.14052734E2,3.2927637E2,4.8427856E2,3.0604816E2,6.0269073E2,3.1793408E2,4.2631958E2,4.2990332E2,0E0,0E0,0E0,0E0,0E0,0E0,0E0,0E0,0E0,0E0,0E0,0E0,0E0,0E0,0E0,0E0],"parents":[2147483647,0,0,1,1,2,2,3,3,4,4,5,5,6,6,7,7,8,8,9,9,10,10,11,11,12,12,13,13,14,14],"right_children":[2,4,6,8,10,12,14,16,18,20,22,24,26,28,30,-1,-1,-1,-1,-1,-1,-1,-1,-1,-1,-1,-1,-1,-1,-1,-1],"split_conditions":[4.31973E-1,3.352293E-1,5.6403726E-1,1.5727332E-1,-4.158E4,-3.8016E4,1E0,3.7233368E-1,3.117E3,4.6567753E-2,2.6504943E-1,4.6822272E-2,4.311918E-1,-3.8016E4,6.424553E-1,6.459236E-2,4.788835E-2,4.013642E-2,2.3342486E-2,1.1113449E-2,3.461012E-2,2.273653E-2,4.3111277E-4,-9.846286E-3,1.0648995E-2,-8.697756E-3,-2.493286E-2,-1.3546932E-2,-3.629456E-2,-3.387412E-2,-4.958382E-2],"split_indices":[108,108,108,108,106,106,1,40,16,105,40,105,40,106,108,0,0,0,0,0,0,0,0,0,0,0,0,0,0,0,0],"split_type":[0,0,0,0,0,0,0,0,0,0,0,0,0,0,0,0,0,0,0,0,0,0,0,0,0,0,0,0,0,0,0],"sum_hessian":[8.969246E4,3.753402E4,5.2158445E4,2.0829045E4,1.6704973E4,2.6419537E4,2.5738906E4,4.1315127E3,1.6697531E4,9.029347E3,7.675626E3,1.4349797E4,1.2069741E4,8.280453E3,1.7458453E4,2.037219E3,2.094294E3,1.2920262E4,3.7772705E3,3.755594E3,5.2737524E3,2.1264075E3,5.5492188E3,7.293895E3,7.0559014E3,5.910166E3,6.159575E3,4.4250137E3,3.8554392E3,8.967799E3,8.490654E3],"tree_param":{"num_deleted":"0","num_feature":"109","num_nodes":"31","size_leaf_vector":"1"}},{"base_weights":[1.2377494E-3,5.721509E-1,-4.0960908E-1,8.34086E-1,3.7581962E-1,-1.11873776E-1,-6.549341E-1,1.0239568E0,7.129731E-1,5.686962E-1,2.307648E-1,2.2782803E-2,-2.991114E-1,-4.991173E-1,-8.413065E-1,6.1268102E-2,4.6283122E-2,3.951636E-2,1.563616E-2,1.6544318E-2,3.196135E-2,2.0727403E-2,2.6342405E-3,6.9604865E-3,-1.40112685E-2,-2.5997898E-3,-1.985441E-2,-1.5346694E-2,-3.9321315E-2,-3.170591E-2,-4.8768226E-2],"categories":[],"categories_nodes":[],"categories_segments":[],"categories_sizes":[],"default_left":[1,0,0,0,0,0,0,0,0,0,0,0,1,1,0,0,0,0,0,0,0,0,0,0,0,0,0,0,0,0,0],"id":6,"left_children":[1,3,5,7,9,11,13,15,17,19,21,23,25,27,29,-1,-1,-1,-1,-1,-1,-1,-1,-1,-1,-1,-1,-1,-1,-1,-1],"loss_changes":[2.1001633E4,1.9265928E3,3.8030469E3,3.6839746E2,5.9911035E2,5.930748E2,8.2855664E2,1.2258008E2,3.032876E2,1.539834E2,4.001275E2,4.827654E2,2.3822485E2,8.583684E2,3.603789E2,0E0,0E0,0E0,0E0,0E0,0E0,0E0,0E0,0E0,0E0,0E0,0E0,0E0,0E0,0E0,0E0],"parents":[2147483647,0,0,1,1,2,2,3,3,4,4,5,5,6,6,7,7,8,8,9,9,10,10,11,11,12,12,13,13,14,14],"right_children":[2,4,6,8,10,12,14,16,18,20,22,24,26,28,30,-1,-1,-1,-1,-1,-1,-1,-1,-1,-1,-1,-1,-1,-1,-1,-1],"split_conditions":[4.31973E-1,3.0103564E-1,5.486775E-1,2.4318647E-1,3.4741822E-1,1.6940582E-1,3.055E3,1.6938917E-1,4.984E3,1E0,1.441E3,1E0,3.1547216E-1,2.961748E-1,6.178694E-1,6.1268102E-2,4.6283122E-2,3.951636E-2,1.563616E-2,1.6544318E-2,3.196135E-2,2.0727403E-2,2.6342405E-3,6.9604865E-3,-1.40112685E-2,-2.5997898E-3,-1.985441E-2,-1.5346694E-2,-3.9321315E-2,-3.170591E-2,-4.8768226E-2],"split_indices":[108,108,108,40,40,107,16,108,16,78,16,11,40,38,108,0,0,0,0,0,0,0,0,0,0,0,0,0,0,0,0],"split_type":[0,0,0,0,0,0,0,0,0,0,0,0,0,0,0,0,0,0,0,0,0,0,0,0,0,0,0,0,0,0,0],"sum_hessian":[8.953511E4,3.746848E4,5.2066625E4,1.6050918E4,2.1417564E4,2.3521518E4,2.8545107E4,6.2481396E3,9.802778E3,9.192094E3,1.2225471E4,1.3682376E4,9.839142E3,1.5549017E4,1.2996092E4,2.0454824E3,4.202657E3,8.214276E3,1.5885016E3,2.103931E3,7.088163E3,6.01574E3,6.20973E3,9.884808E3,3.7975679E3,2.7939111E3,7.0452305E3,9.318117E3,6.2308994E3,5.107741E3,7.8883506E3],"tree_param":{"num_deleted":"0","num_feature":"109","num_nodes":"31","size_leaf_vector":"1"}},{"base_weights":[-1.2611864E-3,4.5137724E-1,-4.7404873E-1,7.440511E-1,2.2262202E-1,-2.672345E-1,-7.113992E-1,8.030329E-1,4.0467718E-1,3.728135E-1,4.751442E-2,-1.048695E-1,-4.4024742E-1,-8.0814636E-1,-4.2031664E-1,4.7749065E-2,3.3870485E-2,-2.6927951E-3,2.6523937E-2,5.9684566E-3,2.8488392E-2,1.7874578E-2,-2.41493E-3,-1.4899977E-2,5.754553E-3,-2.492871E-2,-2.542921E-3,-3.466214E-2,-4.9474582E-2,-1.2048802E-2,-4.246187E-2],"categories":[],"categories_nodes":[],"categories_segments":[],"categories_sizes":[],"default_left":[1,0,0,0,0,1,0,0,0,1,0,1,0,0,1,0,0,0,0,0,0,0,0,0,0,0,0,0,0,0,0],"id":7,"left_children":[1,3,5,7,9,11,13,15,17,19,21,23,25,27,29,-1,-1,-1,-1,-1,-1,-1,-1,-1,-1,-1,-1,-1,-1,-1,-1],"loss_changes":[1.90826E4,3.049831E3,2.1407285E3,3.9971875E2,6.7250586E2,6.547057E2,5.7154395E2,3.2433398E2,1.7083737E2,6.8703687E2,3.5070135E2,5.1088242E2,2.5624756E2,3.168828E2,3.8963385E2,0E0,0E0,0E0,0E0,0E0,0E0,0E0,0E0,0E0,0E0,0E0,0E0,0E0,0E0,0E0,0E0],"parents":[2147483647,0,0,1,1,2,2,3,3,4,4,5,5,6,6,7,7,8,8,9,9,10,10,11,11,12,12,13,13,14,14],"right_children":[2,4,6,8,10,12,14,16,18,20,22,24,26,28,30,-1,-1,-1,-1,-1,-1,-1,-1,-1,-1,-1,-1,-1,-1,-1,-1],"split_conditions":[4.7320655E-1,3.3193442E-1,5.928283E-1,1.9259E4,-4.158E4,-4.455E4,8.5282844E-1,2.3667091E-1,2.6064E5,4.6567753E-2,2.6504943E-1,4.462E-2,9E0,6.6920465E-1,7.0123655E-1,4.7749065E-2,3.3870485E-2,-2.6927951E-3,2.6523937E-2,5.9684566E-3,2.8488392E-2,1.7874578E-2,-2.41493E-3,-1.4899977E-2,5.754553E-3,-2.492871E-2,-2.542921E-3,-3.466214E-2,-4.9474582E-2,-1.2048802E-2,-4.246187E-2],"split_indices":[108,108,108,15,106,106,40,108,6,105,40,105,102,108,39,0,0,0,0,0,0,0,0,0,0,0,0,0,0,0,0],"split_type":[0,0,0,0,0,0,0,0,0,0,0,0,0,0,0,0,0,0,0,0,0,0,0,0,0,0,0,0,0,0,0],"sum_hessian":[8.9168266E4,4.555488E4,4.361339E4,1.9984312E4,2.5570566E4,2.3307035E4,2.0306355E4,1.7024209E4,2.9601035E3,1.3763958E4,1.1806608E4,1.2024334E4,1.12827E4,1.5239443E4,5.0669116E3,7.7018213E3,9.322389E3,6.374045E2,2.322699E3,6.019528E3,7.7444297E3,2.7870688E3,9.019539E3,6.4024727E3,5.621862E3,9.812588E3,1.4701123E3,9.331602E3,5.907842E3,3.5740776E3,1.4928339E3],"tree_param":{"num_deleted":"0","num_feature":"109","num_nodes":"31","size_leaf_vector":"1"}},{"base_weights":[5.8120075E-3,4.347774E-1,-4.4082958E-1,6.594702E-1,1.5529005E-1,-2.3236778E-1,-6.82837E-1,8.3687305E-1,5.246721E-1,2.7895632E-1,-4.3549348E-2,-7.227739E-2,-4.246433E-1,-3.9890146E-1,-7.7286524E-1,4.7229204E-2,3.2541674E-2,3.390265E-2,1.9799162E-2,2.1556582E-2,5.3149094E-3,1.5378016E-2,-7.0497296E-3,8.028402E-3,-1.0300297E-2,-1.6348952E-2,-3.2903552E-2,-1.3208016E-2,-4.7595233E-2,-2.6006976E-2,-4.2525817E-2],"categories":[],"categories_nodes":[],"categories_segments":[],"categories_sizes":[],"default_left":[1,0,0,0,0,1,1,0,0,0,0,0,0,0,0,0,0,0,0,0,0,0,0,0,0,0,0,0,0,0,0],"id":8,"left_children":[1,3,5,7,9,11,13,15,17,19,21,23,25,27,29,-1,-1,-1,-1,-1,-1,-1,-1,-1,-1,-1,-1,-1,-1,-1,-1],"loss_changes":[1.7103785E4,2.859542E3,2.2062148E3,6.0319824E2,4.9906418E2,7.232467E2,5.170283E2,2.1774951E2,2.8290454E2,3.2872485E2,2.663351E2,3.9931375E2,2.4315442E2,3.6294E2,3.010879E2,0E0,0E0,0E0,0E0,0E0,0E0,0E0,0E0,0E0,0E0,0E0,0E0,0E0,0E0,0E0,0E0],"parents":[2147483647,0,0,1,1,2,2,3,3,4,4,5,5,6,6,7,7,8,8,9,9,10,10,11,11,12,12,13,13,14,14],"right_children":[2,4,6,8,10,12,14,16,18,20,22,24,26,28,30,-1,-1,-1,-1,-1,-1,-1,-1,-1,-1,-1,-1,-1,-1,-1,-1],"split_conditions":[4.7320655E-1,3.6531E-1,5.928283E-1,2.569923E-1,1.6940582E-1,-3.8016E4,2.851799E-1,5.478105E-1,-5.8806E4,-4.2768E4,2.6504943E-1,1E0,1E0,7.218428E-1,7.5847335E-2,4.7229204E-2,3.2541674E-2,3.390265E-2,1.9799162E-2,2.1556582E-2,5.3149094E-3,1.5378016E-2,-7.0497296E-3,8.028402E-3,-1.0300297E-2,-1.6348952E-2,-3.2903552E-2,-1.3208016E-2,-4.7595233E-2,-2.6006976E-2,-4.2525817E-2],"split_indices":[108,108,108,108,107,106,40,40,106,106,40,1,11,108,107,0,0,0,0,0,0,0,0,0,0,0,0,0,0,0,0],"split_type":[0,0,0,0,0,0,0,0,0,0,0,0,0,0,0,0,0,0,0,0,0,0,0,0,0,0,0,0,0,0,0],"sum_hessian":[8.9269086E4,4.5535613E4,4.3733477E4,2.5241469E4,2.0294143E4,2.3496166E4,2.023731E4,1.0896189E4,1.4345279E4,1.2512014E4,7.78213E3,1.2821905E4,1.0674261E4,4.8732485E3,1.5364062E4,6.898246E3,3.9979426E3,6.542809E3,7.8024697E3,6.6496924E3,5.8623213E3,1.6901417E3,6.0919883E3,4.677441E3,8.144465E3,7.5273E3,3.1469612E3,3.9196821E3,9.5356665E2,3.6129482E3,1.1751113E4],"tree_param":{"num_deleted":"0","num_feature":"109","num_nodes":"31","size_leaf_vector":"1"}},{"base_weights":[6.01533E-3,4.8582754E-1,-3.7013802E-1,6.934992E-1,2.6782587E-1,-1.8053542E-1,-6.434353E-1,8.7738454E-1,5.8825475E-1,4.250008E-1,1.1918095E-1,-3.597598E-2,-3.457459E-1,-7.1334624E-1,-2.9130816E-1,5.5036332E-2,3.97279E-2,3.32253E-2,9.832341E-3,2.8313516E-2,1.24778515E-2,1.951125E-2,9.3001017E-4,6.2824697E-3,-1.1288759E-2,-9.388626E-3,-2.4154685E-2,-2.945312E-2,-4.5276057E-2,-5.700182E-3,-3.880428E-2],"categories":[],"categories_nodes":[],"categories_segments":[],"categories_sizes":[],"default_left":[1,0,0,0,0,1,0,0,0,1,0,0,0,0,0,0,0,0,0,0,0,0,0,0,0,0,0,0,0,0,0],"id":9,"left_children":[1,3,5,7,9,11,13,15,17,19,21,23,25,27,29,-1,-1,-1,-1,-1,-1,-1,-1,-1,-1,-1,-1,-1,-1,-1,-1],"loss_changes":[1.6069455E4,1.7711895E3,2.5860693E3,3.8726758E2,4.4595972E2,7.037608E2,5.0303125E2,1.3401172E2,3.804961E2,2.2982483E2,2.6750595E2,4.8217798E2,2.98281E2,4.0681934E2,2.911184E2,0E0,0E0,0E0,0E0,0E0,0E0,0E0,0E0,0E0,0E0,0E0,0E0,0E0,0E0,0E0,0E0],"parents":[2147483647,0,0,1,1,2,2,3,3,4,4,5,5,6,6,7,7,8,8,9,9,10,10,11,11,12,12,13,13,14,14],"right_children":[2,4,6,8,10,12,14,16,18,20,22,24,26,28,30,-1,-1,-1,-1,-1,-1,-1,-1,-1,-1,-1,-1,-1,-1,-1,-1],"split_conditions":[4.4153187E-1,3.3193442E-1,5.9129685E-1,2.4318647E-1,1.441E3,-4.158E4,4E0,1.6938917E-1,4.984E3,1.7247853E-1,2.6504943E-1,1.5443261E-1,1.73E3,6.6920465E-1,7.042514E-1,5.5036332E-2,3.97279E-2,3.32253E-2,9.832341E-3,2.8313516E-2,1.24778515E-2,1.951125E-2,9.3001017E-4,6.2824697E-3,-1.1288759E-2,-9.388626E-3,-2.4154685E-2,-2.945312E-2,-4.5276057E-2,-5.700182E-3,-3.880428E-2],"split_indices":[108,108,108,40,16,106,101,108,16,38,40,107,16,108,39,0,0,0,0,0,0,0,0,0,0,0,0,0,0,0,0],"split_type":[0,0,0,0,0,0,0,0,0,0,0,0,0,0,0,0,0,0,0,0,0,0,0,0,0,0,0,0,0,0,0],"sum_hessian":[8.903386E4,3.9125727E4,4.9908133E4,2.0036486E4,1.9089242E4,2.9466867E4,2.0441264E4,7.2906963E3,1.2745789E4,9.277497E3,9.811744E3,1.5716299E4,1.3750568E4,1.7054295E4,3.386969E3,1.9689978E3,5.3216987E3,1.0667909E4,2.0778804E3,5.1380483E3,4.139449E3,2.654782E3,7.156962E3,8.488322E3,7.2279766E3,6.396207E3,7.354362E3,1.0358975E4,6.69532E3,2.4808484E3,9.061207E2],"tree_param":{"num_deleted":"0","num_feature":"109","num_nodes":"31","size_leaf_vector":"1"}},{"base_weights":[-1.5893231E-4,2.384183E-1,-3.9871216E-1,4.3246147E-1,-6.1738104E-2,-1.3580512E-2,-5.5372554E-1,7.677867E-1,3.2373342E-1,2.9343218E-1,-2.3672412E-1,1.5980409E-1,-3.8994977E-1,-4.578489E-1,-8.225268E-1,4.729184E-2,3.2212187E-2,3.6417507E-2,1.15298685E-2,3.1162074E-2,9.253594E-3,-4.7111246E-3,-2.935697E-2,1.37448935E-2,-1.2946211E-2,-8.5238945E-3,-2.8982988E-2,-1.454995E-2,-3.3127572E-2,-2.8384909E-2,-4.6740536E-2],"categories":[],"categories_nodes":[],"categories_segments":[],"categories_sizes":[],"default_left":[1,0,1,0,0,0,1,0,0,0,0,1,1,0,0,0,0,0,0,0,0,0,0,0,0,0,0,0,0,0,0],"id":10,"left_children":[1,3,5,7,9,11,13,15,17,19,21,23,25,27,29,-1,-1,-1,-1,-1,-1,-1,-1,-1,-1,-1,-1,-1,-1,-1,-1],"loss_changes":[8.407365E3,3.2214558E3,1.9766143E3,1.2245283E3,1.3498279E3,6.2018195E2,6.080205E2,1.8030713E2,9.5586304E2,2.5608252E2,7.26499E2,3.136366E2,1.2469827E2,5.9419604E2,1.7702148E2,0E0,0E0,0E0,0E0,0E0,0E0,0E0,0E0,0E0,0E0,0E0,0E0,0E0,0E0,0E0,0E0],"parents":[2147483647,0,0,1,1,2,2,3,3,4,4,5,5,6,6,7,7,8,8,9,9,10,10,11,11,12,12,13,13,14,14],"right_children":[2,4,6,8,10,12,14,16,18,20,22,24,26,28,30,-1,-1,-1,-1,-1,-1,-1,-1,-1,-1,-1,-1,-1,-1,-1,-1],"split_conditions":[4.8485148E-1,5.5679184E-1,3.964846E-1,2.4318647E-1,3.1547216E-1,4.213E3,4.5527762E-1,2.6651978E-1,1.519658E-1,1.3510601E-1,1E0,3.6156216E-1,2.3085375E-1,1.6872E4,5.681142E-1,4.729184E-2,3.2212187E-2,3.6417507E-2,1.15298685E-2,3.1162074E-2,9.253594E-3,-4.7111246E-3,-2.935697E-2,1.37448935E-2,-1.2946211E-2,-8.5238945E-3,-2.8982988E-2,-1.454995E-2,-3.3127572E-2,-2.8384909E-2,-4.6740536E-2],"split_indices":[40,39,39,40,40,16,38,39,39,40,11,38,39,15,39,0,0,0,0,0,0,0,0,0,0,0,0,0,0,0,0],"split_type":[0,0,0,0,0,0,0,0,0,0,0,0,0,0,0,0,0,0,0,0,0,0,0,0,0,0,0,0,0,0,0],"sum_hessian":[8.84168E4,5.5308863E4,3.3107934E4,3.3592047E4,2.1716812E4,9.501784E3,2.360615E4,8.22365E3,2.5368398E4,7.167736E3,1.4549077E4,6.5054497E3,2.9963347E3,1.7401904E4,6.204246E3,3.3659653E3,4.8576855E3,4.745483E3,2.0622914E4,1.7714214E3,5.3963145E3,1.034386E4,4.2052173E3,5.103123E3,1.4023267E3,1.3900782E3,1.6062563E3,9.588713E3,7.813192E3,1.8994633E3,4.3047827E3],"tree_param":{"num_deleted":"0","num_feature":"109","num_nodes":"31","size_leaf_vector":"1"}},{"base_weights":[9.416783E-4,4.548456E-1,-3.278881E-1,7.379109E-1,3.319969E-1,-1.0092414E-1,-5.3378356E-1,8.0878556E-1,4.7874576E-1,4.450182E-1,1.6543722E-1,1.0014645E-2,-2.8676343E-1,-4.4864792E-1,-7.955407E-1,4.9793016E-2,3.673199E-2,3.4269057E-2,8.253484E-3,1.1396336E-2,2.8679071E-2,1.3975452E-2,-1.8843183E-3,7.109005E-3,-9.134384E-3,-1.7902492E-2,6.733775E-3,-2.5873182E-2,-2.3360937E-3,-3.7226453E-2,-6.2074166E-2],"categories":[],"categories_nodes":[],"categories_segments":[],"categories_sizes":[],"default_left":[0,0,1,0,0,1,0,0,0,1,0,0,0,0,0,0,0,0,0,0,0,0,0,0,0,0,0,0,0,0,0],"id":11,"left_children":[1,3,5,7,9,11,13,15,17,19,21,23,25,27,29,-1,-1,-1,-1,-1,-1,-1,-1,-1,-1,-1,-1,-1,-1,-1,-1],"loss_changes":[1.3124334E4,1.2843223E3,2.3827905E3,2.0495117E2,4.848938E2,5.000777E2,5.954531E2,1.2101221E2,1.5564746E2,4.2820776E2,2.4135666E2,3.8688455E2,2.724491E2,5.580405E2,1.4831299E2,0E0,0E0,0E0,0E0,0E0,0E0,0E0,0E0,0E0,0E0,0E0,0E0,0E0,0E0,0E0,0E0],"parents":[2147483647,0,0,1,1,2,2,3,3,4,4,5,5,6,6,7,7,8,8,9,9,10,10,11,11,12,12,13,13,14,14],"right_children":[2,4,6,8,10,12,14,16,18,20,22,24,26,28,30,-1,-1,-1,-1,-1,-1,-1,-1,-1,-1,-1,-1,-1,-1,-1,-1],"split_conditions":[4.3386382E-1,2.624254E-1,5.5485904E-1,3.117E3,-2.8512E4,-2.01465E4,6.8318814E-1,1.4143553E-1,4.7944897E-1,4.6567753E-2,2.049E3,1.7407371E-1,1E0,4E0,9.742E-2,4.9793016E-2,3.673199E-2,3.4269057E-2,8.253484E-3,1.1396336E-2,2.8679071E-2,1.3975452E-2,-1.8843183E-3,7.109005E-3,-9.134384E-3,-1.7902492E-2,6.733775E-3,-2.5873182E-2,-2.3360937E-3,-3.7226453E-2,-6.2074166E-2],"split_indices":[108,108,108,16,106,106,108,108,40,105,16,107,73,101,105,0,0,0,0,0,0,0,0,0,0,0,0,0,0,0,0],"split_type":[0,0,0,0,0,0,0,0,0,0,0,0,0,0,0,0,0,0,0,0,0,0,0,0,0,0,0,0,0,0,0],"sum_hessian":[8.792904E4,3.6939203E4,5.0989832E4,1.1178027E4,2.5761176E4,2.425471E4,2.6735121E4,8.77593E3,2.402098E3,1.534616E4,1.0415016E4,1.5188636E4,9.066075E3,2.0175742E4,6.559378E3,2.4874634E3,6.2884663E3,1.4474196E3,9.546784E2,5.7089E3,9.637261E3,6.6692607E3,3.745755E3,9.009622E3,6.179014E3,7.7545444E3,1.3115308E3,1.7226092E4,2.9496501E3,5.8884634E3,6.7091455E2],"tree_param":{"num_deleted":"0","num_feature":"109","num_nodes":"31","size_leaf_vector":"1"}},{"base_weights":[1.8180287E-3,3.660096E-1,-3.7730095E-1,5.5515957E-1,1.3879043E-1,-2.0443876E-1,-5.7145184E-1,7.556913E-1,4.6728522E-1,3.0486667E-1,-1.455884E-4,2.908745E-4,-3.220935E-1,-4.6881127E-1,-8.1591934E-1,4.056878E-2,1.805712E-2,1.13693895E-2,2.6972001E-2,5.203673E-3,2.575222E-2,7.702423E-3,-5.7702386E-3,-1.6914278E-2,8.224527E-3,-1.3875404E-2,-4.2976357E-2,-1.0211798E-2,-2.9903067E-2,-3.2902505E-2,-5.0218076E-2],"categories":[],"categories_nodes":[],"categories_segments":[],"categories_sizes":[],"default_left":[1,0,0,0,0,0,0,0,0,1,0,0,0,0,0,0,0,0,0,0,0,0,0,0,0,0,0,0,0,0,0],"id":12,"left_children":[1,3,5,7,9,11,13,15,17,19,21,23,25,27,29,-1,-1,-1,-1,-1,-1,-1,-1,-1,-1,-1,-1,-1,-1,-1,-1],"loss_changes":[1.2136736E4,1.9267959E3,1.4453081E3,4.3077588E2,4.69981E2,5.48825E2,5.086001E2,1.6344824E2,2.9438696E2,3.9150012E2,1.9713766E2,4.6239438E2,3.4647278E2,4.884973E2,1.7773901E2,0E0,0E0,0E0,0E0,0E0,0E0,0E0,0E0,0E0,0E0,0E0,0E0,0E0,0E0,0E0,0E0],"parents":[2147483647,0,0,1,1,2,2,3,3,4,4,5,5,6,6,7,7,8,8,9,9,10,10,11,11,12,12,13,13,14,14],"right_children":[2,4,6,8,10,12,14,16,18,20,22,24,26,28,30,-1,-1,-1,-1,-1,-1,-1,-1,-1,-1,-1,-1,-1,-1,-1,-1],"split_conditions":[4.7320655E-1,3.6531E-1,5.8969027E-1,2.2099584E-1,-5.8806E4,1E0,1E0,7.263E3,1E0,4.6567753E-2,3.9794633E-1,6.2340623E-1,9.305455E-2,1E0,-2.6613E4,4.056878E-2,1.805712E-2,1.13693895E-2,2.6972001E-2,5.203673E-3,2.575222E-2,7.702423E-3,-5.7702386E-3,-1.6914278E-2,8.224527E-3,-1.3875404E-2,-4.2976357E-2,-1.0211798E-2,-2.9903067E-2,-3.2902505E-2,-5.0218076E-2],"split_indices":[108,108,108,108,106,1,11,16,78,105,40,38,105,1,106,0,0,0,0,0,0,0,0,0,0,0,0,0,0,0,0],"split_type":[0,0,0,0,0,0,0,0,0,0,0,0,0,0,0,0,0,0,0,0,0,0,0,0,0,0,0,0,0,0,0],"sum_hessian":[8.7899555E4,4.4832406E4,4.3067145E4,2.4464959E4,2.036745E4,2.2783719E4,2.0283426E4,7.4519053E3,1.7013055E4,9.277025E3,1.1090424E4,8.315322E3,1.4468396E4,1.4287631E4,5.995795E3,6.529338E3,9.225678E2,3.9348337E3,1.307822E4,4.7451978E3,4.531827E3,4.743808E3,6.3466157E3,2.7153218E3,5.6E3,1.3361449E4,1.1069473E3,4.689923E3,9.597708E3,3.2650012E3,2.7307935E3],"tree_param":{"num_deleted":"0","num_feature":"109","num_nodes":"31","size_leaf_vector":"1"}},{"base_weights":[1.2881769E-3,3.291113E-1,-3.6669177E-1,5.402516E-1,1.108889E-1,-2.1470886E-1,-5.2760226E-1,7.3448014E-1,4.4952005E-1,-1.4298233E-1,1.8296707E-1,-4.3588793E-1,-1.3525537E-1,-3.9192948E-1,-6.901032E-1,4.3088254E-2,2.8606368E-2,2.585033E-2,1.1039465E-2,5.8718342E-3,-1.23388115E-2,1.9018998E-2,8.5953454E-4,-4.178699E-2,-1.8900266E-2,-1.5498901E-2,-3.5563117E-4,-3.1958815E-2,-1.1889581E-2,-3.1554144E-2,-4.8677754E-2],"categories":[],"categories_nodes":[],"categories_segments":[],"categories_sizes":[],"default_left":[1,0,0,0,1,0,0,0,0,0,0,0,0,0,1,0,0,0,0,0,0,0,0,0,0,0,0,0,0,0,0],"id":13,"left_children":[1,3,5,7,9,11,13,15,17,19,21,23,25,27,29,-1,-1,-1,-1,-1,-1,-1,-1,-1,-1,-1,-1,-1,-1,-1,-1],"loss_changes":[1.05368E4,2.1283398E3,1.00630225E3,4.1340674E2,4.157174E2,3.7188525E2,4.404165E2,1.5395166E2,2.4694092E2,1.3582912E2,5.790566E2,1.2913647E2,3.4866605E2,4.1508923E2,1.5151855E2,0E0,0E0,0E0,0E0,0E0,0E0,0E0,0E0,0E0,0E0,0E0,0E0,0E0,0E0,0E0,0E0],"parents":[2147483647,0,0,1,1,2,2,3,3,4,4,5,5,6,6,7,7,8,8,9,9,10,10,11,11,12,12,13,13,14,14],"right_children":[2,4,6,8,10,12,14,16,18,20,22,24,26,28,30,-1,-1,-1,-1,-1,-1,-1,-1,-1,-1,-1,-1,-1,-1,-1,-1],"split_conditions":[4.8161662E-1,3.5963514E-1,5.9129685E-1,2.2099584E-1,1.6047E4,1E0,3.248E3,3.8079968E-1,3.212E3,6.0434718E-2,4.545E5,2E0,4.5359567E-2,1.9253956E0,3.6664185E-1,4.3088254E-2,2.8606368E-2,2.585033E-2,1.1039465E-2,5.8718342E-3,-1.23388115E-2,1.9018998E-2,8.5953454E-4,-4.178699E-2,-1.8900266E-2,-1.5498901E-2,-3.5563117E-4,-3.1958815E-2,-1.1889581E-2,-3.1554144E-2,-4.8677754E-2],"split_indices":[108,108,108,108,7,78,16,40,16,107,8,28,105,38,107,0,0,0,0,0,0,0,0,0,0,0,0,0,0,0,0],"split_type":[0,0,0,0,0,0,0,0,0,0,0,0,0,0,0,0,0,0,0,0,0,0,0,0,0,0,0,0,0,0,0],"sum_hessian":[8.734439E4,4.61927E4,4.1151688E4,2.347656E4,2.271614E4,2.1164121E4,1.9987566E4,7.4727017E3,1.6003858E4,5.0230703E3,1.769307E4,5.5922324E3,1.5571889E4,1.089483E4,9.092736E3,4.1863135E3,3.2863882E3,1.2356761E4,3.6470977E3,1.431444E3,3.5916265E3,8.075344E3,9.617726E3,7.054641E2,4.8867686E3,6.587886E3,8.984003E3,4.182573E3,6.7122563E3,7.5284E3,1.5643368E3],"tree_param":{"num_deleted":"0","num_feature":"109","num_nodes":"31","size_leaf_vector":"1"}},{"base_weights":[-1.6475005E-4,4.0436545E-1,-2.8128412E-1,5.948838E-1,2.6640043E-1,-7.6415755E-2,-4.8686278E-1,6.644239E-1,3.4680924E-1,3.8256606E-1,9.4407625E-2,3.1523139E-3,-2.9790896E-1,-3.706661E-1,-6.789401E-1,3.7442975E-2,2.5412679E-2,-3.9603394E-3,2.3112535E-2,7.863894E-3,2.5798777E-2,1.1276553E-2,-5.8697583E-3,1.2609434E-2,-4.9136844E-3,-1.6677627E-2,1.4707669E-2,-1.0177548E-2,-2.9388318E-2,-2.9962135E-2,-4.569604E-2],"categories":[],"categories_nodes":[],"categories_segments":[],"categories_sizes":[],"default_left":[0,0,1,0,0,0,1,0,0,0,0,0,0,0,1,0,0,0,0,0,0,0,0,0,0,0,0,0,0,0,0],"id":14,"left_children":[1,3,5,7,9,11,13,15,17,19,21,23,25,27,29,-1,-1,-1,-1,-1,-1,-1,-1,-1,-1,-1,-1,-1,-1,-1,-1],"loss_changes":[9.929388E3,9.4081006E2,2.1695762E3,2.5913867E2,4.148401E2,4.5474756E2,5.7361865E2,1.544541E2,1.62031E2,3.7241626E2,2.3254515E2,4.7954895E2,1.4401239E2,5.8120557E2,1.8093018E2,0E0,0E0,0E0,0E0,0E0,0E0,0E0,0E0,0E0,0E0,0E0,0E0,0E0,0E0,0E0,0E0],"parents":[2147483647,0,0,1,1,2,2,3,3,4,4,5,5,6,6,7,7,8,8,9,9,10,10,11,11,12,12,13,13,14,14],"right_children":[2,4,6,8,10,12,14,16,18,20,22,24,26,28,30,-1,-1,-1,-1,-1,-1,-1,-1,-1,-1,-1,-1,-1,-1,-1,-1],"split_conditions":[4.2985067E-1,3.0103564E-1,5.579309E-1,3.117E3,-2.8512E4,1E0,2.4924093E-1,-2.1384E4,2.6955E5,4.6567753E-2,1.876E3,9.84E2,3E0,3.513E3,3.117E3,3.7442975E-2,2.5412679E-2,-3.9603394E-3,2.3112535E-2,7.863894E-3,2.5798777E-2,1.1276553E-2,-5.8697583E-3,1.2609434E-2,-4.9136844E-3,-1.6677627E-2,1.4707669E-2,-1.0177548E-2,-2.9388318E-2,-2.9962135E-2,-4.569604E-2],"split_indices":[108,108,108,16,106,11,38,106,6,105,16,16,11,16,16,0,0,0,0,0,0,0,0,0,0,0,0,0,0,0,0],"split_type":[0,0,0,0,0,0,0,0,0,0,0,0,0,0,0,0,0,0,0,0,0,0,0,0,0,0,0,0,0,0,0],"sum_hessian":[8.731136E4,3.5797867E4,5.1513492E4,1.5033933E4,2.0763934E4,2.5802004E4,2.5711488E4,1.174102E4,3.2929136E3,1.2392614E4,8.371319E3,1.8983469E4,6.8185366E3,1.6021971E4,9.689519E3,7.618293E3,4.1227266E3,7.0213275E2,2.5907808E3,4.6099624E3,7.782652E3,5.1703687E3,3.2009507E3,5.493504E3,1.3489964E4,6.431765E3,3.8677133E2,9.054282E3,6.967688E3,7.238138E3,2.4513801E3],"tree_param":{"num_deleted":"0","num_feature":"109","num_nodes":"31","size_leaf_vector":"1"}},{"base_weights":[2.1328276E-3,3.092121E-1,-3.383101E-1,5.1720124E-1,1.3351835E-1,-2.3727018E-1,-5.966873E-1,6.723023E-1,4.0001133E-1,2.7016708E-1,1.9972064E-2,-1.4563353E-1,-4.793804E-1,-6.967278E-1,-3.4011966E-1,4.5923047E-2,3.0020384E-2,2.320701E-2,3.511574E-3,1.8101325E-2,1.8237975E-3,9.7804675E-3,-5.2659586E-3,3.3057033E-4,-1.5450244E-2,-2.6823206E-2,-1.3632638E-3,-2.4440205E-2,-3.944967E-2,-7.929402E-3,-3.7651017E-2],"categories":[],"categories_nodes":[],"categories_segments":[],"categories_sizes":[],"default_left":[0,0,1,0,0,0,0,0,0,0,0,0,0,0,0,0,0,0,0,0,0,0,0,0,0,0,0,0,0,0,0],"id":15,"left_children":[1,3,5,7,9,11,13,15,17,19,21,23,25,27,29,-1,-1,-1,-1,-1,-1,-1,-1,-1,-1,-1,-1,-1,-1,-1,-1],"loss_changes":[9.078641E3,1.6683794E3,1.0750088E3,3.7974316E2,3.8404318E2,6.56807E2,2.9690918E2,1.5866577E2,2.5187512E2,2.4112433E2,2.975341E2,5.342532E2,2.0977881E2,1.5938428E2,2.4345691E2,0E0,0E0,0E0,0E0,0E0,0E0,0E0,0E0,0E0,0E0,0E0,0E0,0E0,0E0,0E0,0E0],"parents":[2147483647,0,0,1,1,2,2,3,3,4,4,5,5,6,6,7,7,8,8,9,9,10,10,11,11,12,12,13,13,14,14],"right_children":[2,4,6,8,10,12,14,16,18,20,22,24,26,28,30,-1,-1,-1,-1,-1,-1,-1,-1,-1,-1,-1,-1,-1,-1,-1,-1],"split_conditions":[4.7989208E-1,3.4497115E-1,6.424553E-1,2.8961125E-1,4.0314168E-1,1E0,8.5282844E-1,1.6938917E-1,5.373E3,1E0,1E0,2.449E3,-6.83E2,1E0,7.218428E-1,4.5923047E-2,3.0020384E-2,2.320701E-2,3.511574E-3,1.8101325E-2,1.8237975E-3,9.7804675E-3,-5.2659586E-3,3.3057033E-4,-1.5450244E-2,-2.6823206E-2,-1.3632638E-3,-2.4440205E-2,-3.944967E-2,-7.929402E-3,-3.7651017E-2],"split_indices":[108,108,108,40,40,11,40,108,16,11,1,16,18,1,108,0,0,0,0,0,0,0,0,0,0,0,0,0,0,0,0],"split_type":[0,0,0,0,0,0,0,0,0,0,0,0,0,0,0,0,0,0,0,0,0,0,0,0,0,0,0,0,0,0,0],"sum_hessian":[8.683925E4,4.5656875E4,4.1182375E4,2.0906027E4,2.4750848E4,2.9606498E4,1.1575877E4,8.9956E3,1.1910427E4,1.1232078E4,1.3518769E4,2.1478625E4,8.127873E3,8.327222E3,3.2486548E3,2.0307583E3,6.964842E3,9.971053E3,1.9393746E3,8.0623687E3,3.1697095E3,5.62829E3,7.890479E3,1.1118401E4,1.0360223E4,7.2165327E3,9.113403E2,2.5613728E3,5.765849E3,2.2575208E3,9.9113416E2],"tree_param":{"num_deleted":"0","num_feature":"109","num_nodes":"31","size_leaf_vector":"1"}},{"base_weights":[-8.684655E-4,4.04638E-1,-2.4611159E-1,6.134173E-1,3.024143E-1,-5.4932937E-2,-4.3532315E-1,7.101283E-1,4.496158E-1,4.5576292E-1,1.9435093E-1,5.670148E-2,-2.415619E-1,-2.8693086E-1,-5.992266E-1,4.4167396E-2,3.167634E-2,2.93338E-2,4.7489456E-3,1.2022181E-2,3.3268187E-2,1.5426441E-2,-7.636828E-4,8.433227E-3,-7.414752E-3,-3.3412606E-3,-1.7420538E-2,-2.1416587E-3,-2.0559002E-2,-2.4616873E-2,-4.184857E-2],"categories":[],"categories_nodes":[],"categories_segments":[],"categories_sizes":[],"default_left":[1,0,0,0,0,1,1,0,0,1,0,0,0,0,0,0,0,0,0,0,0,0,0,0,0,0,0,0,0,0,0],"id":16,"left_children":[1,3,5,7,9,11,13,15,17,19,21,23,25,27,29,-1,-1,-1,-1,-1,-1,-1,-1,-1,-1,-1,-1,-1,-1,-1,-1],"loss_changes":[8.589928E3,6.945459E2,1.9469756E3,1.6916064E2,3.620697E2,5.5783203E2,6.577676E2,8.8676025E1,1.9312592E2,4.075327E2,3.0689108E2,3.8456097E2,1.8707776E2,4.3063245E2,3.2620898E2,0E0,0E0,0E0,0E0,0E0,0E0,0E0,0E0,0E0,0E0,0E0,0E0,0E0,0E0,0E0,0E0],"parents":[2147483647,0,0,1,1,2,2,3,3,4,4,5,5,6,6,7,7,8,8,9,9,10,10,11,11,12,12,13,13,14,14],"right_children":[2,4,6,8,10,12,14,16,18,20,22,24,26,28,30,-1,-1,-1,-1,-1,-1,-1,-1,-1,-1,-1,-1,-1,-1,-1,-1],"split_conditions":[4.1364762E-1,2.624254E-1,5.486775E-1,5.064842E-1,-6.9498E4,-2.1384E4,-3.8016E4,1.6938917E-1,2.402E3,4.661839E-2,2.049E3,2.0067076E-1,1E0,1E0,1E0,4.4167396E-2,3.167634E-2,2.93338E-2,4.7489456E-3,1.2022181E-2,3.3268187E-2,1.5426441E-2,-7.636828E-4,8.433227E-3,-7.414752E-3,-3.3412606E-3,-1.7420538E-2,-2.1416587E-3,-2.0559002E-2,-2.4616873E-2,-4.184857E-2],"split_indices":[108,108,108,40,106,106,106,108,16,105,16,107,1,1,11,0,0,0,0,0,0,0,0,0,0,0,0,0,0,0,0],"split_type":[0,0,0,0,0,0,0,0,0,0,0,0,0,0,0,0,0,0,0,0,0,0,0,0,0,0,0,0,0,0,0],"sum_hessian":[8.637436E4,3.2551014E4,5.3823344E4,1.069756E4,2.1853453E4,2.6773146E4,2.70502E4,6.7241704E3,3.9733896E3,9.032523E3,1.282093E4,1.6752893E4,1.0020254E4,1.4198311E4,1.2851888E4,2.0585715E3,4.6655986E3,2.8653384E3,1.1080514E3,4.456542E3,4.5759814E3,8.299761E3,4.521169E3,1.0835202E4,5.917691E3,3.8028457E3,6.2174077E3,4.7897666E3,9.408544E3,8.867959E3,3.9839294E3],"tree_param":{"num_deleted":"0","num_feature":"109","num_nodes":"31","size_leaf_vector":"1"}},{"base_weights":[2.587647E-3,3.8251767E-1,-2.2460751E-1,5.7082486E-1,2.9213834E-1,-6.492516E-2,-4.332303E-1,6.37498E-1,3.3074254E-1,7.063357E-2,3.634465E-1,4.4260714E-2,-2.2380121E-1,-2.134613E-1,-5.407815E-1,3.6430117E-2,2.315162E-2,1.8442107E-2,-3.5255965E-2,7.4731344E-3,-1.5059036E-2,2.519432E-2,1.1184777E-2,-5.822677E-3,9.90965E-3,-9.190379E-3,-3.6812034E-2,-2.9952703E-3,-2.783225E-2,-2.4682637E-2,-5.2927013E-2],"categories":[],"categories_nodes":[],"categories_segments":[],"categories_sizes":[],"default_left":[0,0,1,0,1,0,0,0,0,0,0,0,0,0,0,0,0,0,0,0,0,0,0,0,0,0,0,0,0,0,0],"id":17,"left_children":[1,3,5,7,9,11,13,15,17,19,21,23,25,27,29,-1,-1,-1,-1,-1,-1,-1,-1,-1,-1,-1,-1,-1,-1,-1,-1],"loss_changes":[7.429923E3,5.480322E2,1.7943987E3,1.6698413E2,3.437827E2,5.293108E2,5.518779E2,1.295813E2,8.993898E1,1.5544737E2,3.2305347E2,4.474326E2,2.5457599E2,4.0443234E2,3.820747E2,0E0,0E0,0E0,0E0,0E0,0E0,0E0,0E0,0E0,0E0,0E0,0E0,0E0,0E0,0E0,0E0],"parents":[2147483647,0,0,1,1,2,2,3,3,4,4,5,5,6,6,7,7,8,8,9,9,10,10,11,11,12,12,13,13,14,14],"right_children":[2,4,6,8,10,12,14,16,18,20,22,24,26,28,30,-1,-1,-1,-1,-1,-1,-1,-1,-1,-1,-1,-1,-1,-1,-1,-1],"split_conditions":[4.1364762E-1,2.624254E-1,5.686439E-1,3.087E3,1.64295E4,2.449E3,1E0,-2.1384E4,2.3964E4,1.9322E4,4.545E5,7.500945E-1,9.742E-2,6.795E5,9.742E-2,3.6430117E-2,2.315162E-2,1.8442107E-2,-3.5255965E-2,7.4731344E-3,-1.5059036E-2,2.519432E-2,1.1184777E-2,-5.822677E-3,9.90965E-3,-9.190379E-3,-3.6812034E-2,-2.9952703E-3,-2.783225E-2,-2.4682637E-2,-5.2927013E-2],"split_indices":[108,108,108,16,7,16,1,106,15,15,8,38,105,8,105,0,0,0,0,0,0,0,0,0,0,0,0,0,0,0,0],"split_type":[0,0,0,0,0,0,0,0,0,0,0,0,0,0,0,0,0,0,0,0,0,0,0,0,0,0,0,0,0,0,0],"sum_hessian":[8.607391E4,3.2209863E4,5.3864043E4,1.0444085E4,2.176578E4,3.0511496E4,2.3352547E4,8.172773E3,2.2713118E3,5.3010635E3,1.6464715E4,1.8084107E4,1.2427388E4,7.6741816E3,1.5678365E4,5.367001E3,2.805772E3,2.1913562E3,7.995543E1,4.3742646E3,9.267987E2,8.210816E3,8.253899E3,8.847278E3,9.236829E3,1.1528962E4,8.9842615E2,5.302692E3,2.3714897E3,1.43721045E4,1.3062604E3],"tree_param":{"num_deleted":"0","num_feature":"109","num_nodes":"31","size_leaf_vector":"1"}},{"base_weights":[1.2410906E-4,3.6634606E-1,-2.1931913E-1,5.857508E-1,2.8311032E-1,-3.2499854E-2,-3.7881523E-1,6.2304306E-1,8.957197E-2,4.4041656E-2,3.558103E-1,4.9839136E-3,-4.545042E-1,-1.7409874E-1,-4.8174873E-1,1.927012E-2,3.453288E-2,-1.8761858E-2,1.639109E-2,1.5618326E-2,-4.503733E-3,1.9713525E-2,-5.933019E-3,-1.9050719E-3,2.5668854E-2,-3.574629E-2,-3.131664E-3,-4.1961693E-3,-3.381486E-2,-2.192397E-2,-4.8766468E-2],"categories":[],"categories_nodes":[],"categories_segments":[],"categories_sizes":[],"default_left":[1,0,0,0,0,0,0,0,0,0,0,0,1,1,0,0,0,0,0,0,0,0,0,0,0,0,0,0,0,0,0],"id":18,"left_children":[1,3,5,7,9,11,13,15,17,19,21,23,25,27,29,-1,-1,-1,-1,-1,-1,-1,-1,-1,-1,-1,-1,-1,-1,-1,-1],"loss_changes":[6.8990938E3,5.872612E2,1.5995171E3,1.636228E2,4.0531567E2,3.910935E2,6.101245E2,1.3192822E2,6.873019E1,1.957723E2,3.2637964E2,4.9742303E2,2.0578549E2,4.3877914E2,4.110923E2,0E0,0E0,0E0,0E0,0E0,0E0,0E0,0E0,0E0,0E0,0E0,0E0,0E0,0E0,0E0,0E0],"parents":[2147483647,0,0,1,1,2,2,3,3,4,4,5,5,6,6,7,7,8,8,9,9,10,10,11,11,12,12,13,13,14,14],"right_children":[2,4,6,8,10,12,14,16,18,20,22,24,26,28,30,-1,-1,-1,-1,-1,-1,-1,-1,-1,-1,-1,-1,-1,-1,-1,-1],"split_conditions":[4.1364762E-1,2.4430414E-1,5.380713E-1,9.220367E-2,1E0,9.305455E-2,1E0,1E0,1.0576294E-1,2.7213368E-1,9.305455E-2,7.88E-2,1.07666664E-1,7.2300684E-1,9.742E-2,1.927012E-2,3.453288E-2,-1.8761858E-2,1.639109E-2,1.5618326E-2,-4.503733E-3,1.9713525E-2,-5.933019E-3,-1.9050719E-3,2.5668854E-2,-3.574629E-2,-3.131664E-3,-4.1961693E-3,-3.381486E-2,-2.192397E-2,-4.8766468E-2],"split_indices":[108,108,108,105,78,105,1,78,105,40,105,105,105,39,105,0,0,0,0,0,0,0,0,0,0,0,0,0,0,0,0],"split_type":[0,0,0,0,0,0,0,0,0,0,0,0,0,0,0,0,0,0,0,0,0,0,0,0,0,0,0,0,0,0,0],"sum_hessian":[8.584507E4,3.216509E4,5.367998E4,8.84476E3,2.332033E4,2.4722955E4,2.8957023E4,8.2262295E3,6.1853E2,5.4383403E3,1.7881988E4,2.2707031E4,2.0159226E3,9.689338E3,1.9267686E4,1.8236074E3,6.4026226E3,2.0941014E2,4.0911987E2,1.8119216E3,3.6264187E3,1.6541332E4,1.3406573E3,2.0933854E4,1.7731792E3,1.2105894E3,8.0533325E2,8.215348E3,1.4739906E3,1.7716475E4,1.551212E3],"tree_param":{"num_deleted":"0","num_feature":"109","num_nodes":"31","size_leaf_vector":"1"}},{"base_weights":[4.969567E-3,2.20433E-1,-3.4279954E-1,4.382969E-1,8.4914126E-2,-1.2289884E-1,-4.4425714E-1,5.7069254E-1,3.204353E-1,1.769247E-1,-7.428204E-2,4.3366365E-2,-3.7385756E-1,-3.9952835E-1,-8.422569E-1,3.9488327E-2,2.5106682E-2,2.3185661E-2,8.047878E-3,6.99583E-4,1.4218922E-2,6.996155E-4,-1.4393441E-2,9.398328E-3,-8.611598E-3,-2.2660403E-2,1.0581091E-2,-2.1641096E-2,1.691786E-2,-4.6939634E-2,-3.1482015E-2],"categories":[],"categories_nodes":[],"categories_segments":[],"categories_sizes":[],"default_left":[1,0,0,0,0,1,0,0,0,1,1,1,1,0,1,0,0,0,0,0,0,0,0,0,0,0,0,0,0,0,0],"id":19,"left_children":[1,3,5,7,9,11,13,15,17,19,21,23,25,27,29,-1,-1,-1,-1,-1,-1,-1,-1,-1,-1,-1,-1,-1,-1,-1,-1],"loss_changes":[6.4091865E3,1.559252E3,7.299663E2,3.1585352E2,4.7695813E2,4.3111914E2,3.9825098E2,1.4284619E2,2.4480322E2,3.6126953E2,2.2487787E2,1.9380272E2,1.9138116E2,4.9467285E2,4.5819336E1,0E0,0E0,0E0,0E0,0E0,0E0,0E0,0E0,0E0,0E0,0E0,0E0,0E0,0E0,0E0,0E0],"parents":[2147483647,0,0,1,1,2,2,3,3,4,4,5,5,6,6,7,7,8,8,9,9,10,10,11,11,12,12,13,13,14,14],"right_children":[2,4,6,8,10,12,14,16,18,20,22,24,26,28,30,-1,-1,-1,-1,-1,-1,-1,-1,-1,-1,-1,-1,-1,-1,-1,-1],"split_conditions":[5.182781E-1,3.4497115E-1,1.345E3,3.1859553E-1,-1.782E4,2.961748E-1,9.305455E-2,1.8185882E-1,1.13275975E-1,4.6567753E-2,5.49E-2,-2.6613E4,1E0,7.88E-2,2.2603846E-1,3.9488327E-2,2.5106682E-2,2.3185661E-2,8.047878E-3,6.99583E-4,1.4218922E-2,6.996155E-4,-1.4393441E-2,9.398328E-3,-8.611598E-3,-2.2660403E-2,1.0581091E-2,-2.1641096E-2,1.691786E-2,-4.6939634E-2,-3.1482015E-2],"split_indices":[108,108,16,40,106,38,105,108,107,105,66,106,73,105,104,0,0,0,0,0,0,0,0,0,0,0,0,0,0,0,0],"split_type":[0,0,0,0,0,0,0,0,0,0,0,0,0,0,0,0,0,0,0,0,0,0,0,0,0,0,0,0,0,0,0],"sum_hessian":[8.55319E4,5.281208E4,3.2719822E4,2.0252064E4,3.2560014E4,1.0330832E4,2.238899E4,9.53614E3,1.0715924E4,2.0634045E4,1.1925968E4,6.2144565E3,4.1163755E3,2.0128836E4,2.2601545E3,2.2704846E3,7.2656553E3,5.643651E3,5.072273E3,8.200574E3,1.2433472E4,8.439074E3,3.4868928E3,3.7197656E3,2.4946912E3,3.6252664E3,4.9110907E2,1.9260225E4,8.686123E2,1.5520509E3,7.081037E2],"tree_param":{"num_deleted":"0","num_feature":"109","num_nodes":"31","size_leaf_vector":"1"}},{"base_weights":[-5.6976746E-3,1.7327577E-1,-2.874334E-1,2.6287404E-1,-9.313979E-2,-1.3183464E-1,-4.5201084E-1,4.04064E-1,8.2897276E-2,1.7199945E-1,-2.5821698E-1,-6.3206965E-1,-8.370487E-2,-3.109739E-1,-5.680165E-1,3.2313325E-2,1.6767997E-2,6.3679554E-3,-2.3579571E-2,1.5515424E-2,-1.5918569E-3,-8.422109E-3,-2.8511623E-2,4.1219327E-3,-3.6998935E-2,4.4718985E-3,-1.1200811E-2,-1.8849852E-2,-1.0329921E-4,-2.5721828E-2,-4.2882625E-2],"categories":[],"categories_nodes":[],"categories_segments":[],"categories_sizes":[],"default_left":[1,0,0,0,0,0,1,0,0,0,1,0,0,0,0,0,0,0,0,0,0,0,0,0,0,0,0,0,0,0,0],"id":20,"left_children":[1,3,5,7,9,11,13,15,17,19,21,23,25,27,29,-1,-1,-1,-1,-1,-1,-1,-1,-1,-1,-1,-1,-1,-1,-1,-1],"loss_changes":[4.288597E3,1.2415599E3,8.4604224E2,9.890112E2,5.729965E2,4.088796E2,2.6252637E2,3.627256E2,4.219322E2,1.416355E2,2.2589758E2,1.1498981E2,3.764619E2,1.4783661E2,1.3626074E2,0E0,0E0,0E0,0E0,0E0,0E0,0E0,0E0,0E0,0E0,0E0,0E0,0E0,0E0,0E0,0E0],"parents":[2147483647,0,0,1,1,2,2,3,3,4,4,5,5,6,6,7,7,8,8,9,9,10,10,11,11,12,12,13,13,14,14],"right_children":[2,4,6,8,10,12,14,16,18,20,22,24,26,28,30,-1,-1,-1,-1,-1,-1,-1,-1,-1,-1,-1,-1,-1,-1,-1,-1],"split_conditions":[4.7225335E-1,1E0,2.449E3,1.876E3,3.1547216E-1,2E0,-5.6133E4,2.2888342E-1,9.305455E-2,-2.2275E4,2.88E-2,5E-2,-5.7024E4,3E0,9.742E-2,3.2313325E-2,1.6767997E-2,6.3679554E-3,-2.3579571E-2,1.5515424E-2,-1.5918569E-3,-8.422109E-3,-2.8511623E-2,4.1219327E-3,-3.6998935E-2,4.4718985E-3,-1.1200811E-2,-1.8849852E-2,-1.0329921E-4,-2.5721828E-2,-4.2882625E-2],"split_indices":[40,11,16,16,40,28,106,40,105,106,44,59,106,28,105,0,0,0,0,0,0,0,0,0,0,0,0,0,0,0,0],"split_type":[0,0,0,0,0,0,0,0,0,0,0,0,0,0,0,0,0,0,0,0,0,0,0,0,0,0,0,0,0,0,0],"sum_hessian":[8.5050055E4,5.201057E4,3.3039484E4,3.8921043E4,1.3089528E4,1.698393E4,1.6055554E4,2.181004E4,1.7111002E4,5.0225317E3,8.066997E3,1.4896085E3,1.5494321E4,7.24768E3,8.807873E3,4.81772E3,1.6992318E4,1.5841516E4,1.269486E3,2.9919114E3,2.0306206E3,6.265727E3,1.80127E3,1.954819E2,1.2941266E3,6.9358784E3,8.558443E3,5.971225E3,1.2764547E3,7.435205E3,1.3726682E3],"tree_param":{"num_deleted":"0","num_feature":"109","num_nodes":"31","size_leaf_vector":"1"}},{"base_weights":[-3.4216251E-3,2.9928714E-1,-2.1283704E-1,4.749478E-1,1.8917744E-1,-1.3441978E-1,-4.8685613E-1,5.710776E-1,3.183E-1,2.2390743E-1,-2.3040558E-1,2.2507698E-4,-2.3748007E-1,-6.402417E-1,-3.7157887E-1,3.924635E-2,2.5254315E-2,2.0429408E-2,-5.9276526E-3,1.4406199E-2,-4.819064E-4,-4.781706E-2,-7.2178612E-3,6.4237737E-3,-8.017797E-3,-6.1931354E-3,-1.7840143E-2,-2.854309E-2,-4.9644165E-2,-1.3163268E-2,-3.5943158E-2],"categories":[],"categories_nodes":[],"categories_segments":[],"categories_sizes":[],"default_left":[1,0,0,0,0,1,0,0,0,0,0,1,0,0,0,0,0,0,0,0,0,0,0,0,0,0,0,0,0,0,0],"id":21,"left_children":[1,3,5,7,9,11,13,15,17,19,21,23,25,27,29,-1,-1,-1,-1,-1,-1,-1,-1,-1,-1,-1,-1,-1,-1,-1,-1],"loss_changes":[5.38077E3,6.712532E2,1.078019E3,2.0119678E2,3.1097815E2,5.4132385E2,1.9714282E2,1.1653882E2,2.007309E2,2.9555066E2,1.0178132E2,3.483637E2,2.9952356E2,1.165863E2,2.3962976E2,0E0,0E0,0E0,0E0,0E0,0E0,0E0,0E0,0E0,0E0,0E0,0E0,0E0,0E0,0E0,0E0],"parents":[2147483647,0,0,1,1,2,2,3,3,4,4,5,5,6,6,7,7,8,8,9,9,10,10,11,11,12,12,13,13,14,14],"right_children":[2,4,6,8,10,12,14,16,18,20,22,24,26,28,30,-1,-1,-1,-1,-1,-1,-1,-1,-1,-1,-1,-1,-1,-1,-1,-1],"split_conditions":[4.2985067E-1,2.923235E-1,6.424553E-1,4.4717857E-1,1E0,4.365065E-1,2E0,1.6938917E-1,5.071E3,2.770824E-1,5.6275E-2,2.4271443E-1,1.6028886E-1,2.475E5,7.218428E-1,3.924635E-2,2.5254315E-2,2.0429408E-2,-5.9276526E-3,1.4406199E-2,-4.819064E-4,-4.781706E-2,-7.2178612E-3,6.4237737E-3,-8.017797E-3,-6.1931354E-3,-1.7840143E-2,-2.854309E-2,-4.9644165E-2,-1.3163268E-2,-3.5943158E-2],"split_indices":[108,108,108,40,0,40,102,108,16,107,104,38,107,5,108,0,0,0,0,0,0,0,0,0,0,0,0,0,0,0,0],"split_type":[0,0,0,0,0,0,0,0,0,0,0,0,0,0,0,0,0,0,0,0,0,0,0,0,0,0,0,0,0,0,0],"sum_hessian":[8.487905E4,3.4708168E4,5.0170883E4,1.3372068E4,2.1336098E4,3.9008996E4,1.1161887E4,8.285112E3,5.086956E3,1.970549E4,1.6306086E3,1.691331E4,2.2095684E4,4.7873643E3,6.374523E3,1.9512046E3,6.3339077E3,4.2157217E3,8.7123444E2,1.5455544E4,4.2499463E3,1.7172868E2,1.45888E3,9.40337E3,7.509941E3,1.131948E4,1.0776203E4,4.0025151E3,7.848492E2,4.8603877E3,1.5141348E3],"tree_param":{"num_deleted":"0","num_feature":"109","num_nodes":"31","size_leaf_vector":"1"}},{"base_weights":[2.530862E-3,1.947116E-1,-2.9792625E-1,3.7383658E-1,4.9788397E-2,-2.0686203E-1,-5.2531654E-1,5.002146E-1,2.6267332E-1,1.6343953E-1,-8.161313E-2,-1.9904371E-2,-3.3555797E-1,-5.8766174E-1,-1.3228823E-1,1.40368E-2,3.243014E-2,2.798122E-2,9.874738E-3,-1.0792797E-3,1.6180594E-2,7.1746943E-4,-1.4383109E-2,-1.5911274E-2,7.012095E-3,-5.245266E-3,-2.1552036E-2,-2.4918351E-2,-4.32981E-2,-1.9155763E-2,1.6606813E-2],"categories":[],"categories_nodes":[],"categories_segments":[],"categories_sizes":[],"default_left":[1,0,0,0,0,0,0,0,0,1,1,0,0,1,0,0,0,0,0,0,0,0,0,0,0,0,0,0,0,0,0],"id":22,"left_children":[1,3,5,7,9,11,13,15,17,19,21,23,25,27,29,-1,-1,-1,-1,-1,-1,-1,-1,-1,-1,-1,-1,-1,-1,-1,-1],"loss_changes":[4.891563E3,1.341214E3,6.842075E2,3.2448315E2,4.2654202E2,5.677998E2,2.3146704E2,3.5194922E2,2.3786487E2,4.5388873E2,2.619325E2,4.5976642E2,3.0778125E2,2.0223755E2,1.5098438E2,0E0,0E0,0E0,0E0,0E0,0E0,0E0,0E0,0E0,0E0,0E0,0E0,0E0,0E0,0E0,0E0],"parents":[2147483647,0,0,1,1,2,2,3,3,4,4,5,5,6,6,7,7,8,8,9,9,10,10,11,11,12,12,13,13,14,14],"right_children":[2,4,6,8,10,12,14,16,18,20,22,24,26,28,30,-1,-1,-1,-1,-1,-1,-1,-1,-1,-1,-1,-1,-1,-1,-1,-1],"split_conditions":[5.1529616E-1,3.6531E-1,1E0,-5.6133E4,-4.158E4,1.937E3,2E0,4.462E-2,1.4916746E-1,4.6567753E-2,6.25E-2,8.7735003E-1,1E0,3.117E3,7.801436E-1,1.40368E-2,3.243014E-2,2.798122E-2,9.874738E-3,-1.0792797E-3,1.6180594E-2,7.1746943E-4,-1.4383109E-2,-1.5911274E-2,7.012095E-3,-5.245266E-3,-2.1552036E-2,-2.4918351E-2,-4.32981E-2,-1.9155763E-2,1.6606813E-2],"split_indices":[108,108,11,106,106,16,11,105,40,105,59,38,1,16,40,0,0,0,0,0,0,0,0,0,0,0,0,0,0,0,0],"split_type":[0,0,0,0,0,0,0,0,0,0,0,0,0,0,0,0,0,0,0,0,0,0,0,0,0,0,0,0,0,0,0],"sum_hessian":[8.4712016E4,5.166561E4,3.3046406E4,2.3105564E4,2.8560045E4,2.3597926E4,9.448482E3,1.0811178E4,1.2294386E4,1.5314265E4,1.3245779E4,9.621642E3,1.3976283E4,8.1544624E3,1.2940198E3,4.3621245E3,6.4490537E3,2.211463E3,1.0082923E4,7.106252E3,8.208013E3,9.037641E3,4.208139E3,3.3605706E3,6.261071E3,4.0924546E3,9.883829E3,6.1757256E3,1.9787369E3,8.4034186E2,4.5367795E2],"tree_param":{"num_deleted":"0","num_feature":"109","num_nodes":"31","size_leaf_vector":"1"}},{"base_weights":[1.8935648E-3,1.9176464E-1,-3.0142495E-1,3.5375217E-1,4.8954833E-2,-2.4048345E-1,-6.338649E-1,4.6314853E-1,2.2837596E-1,1.1788858E-1,-1.5477361E-1,-2.9700145E-1,9.76355E-2,-5.682851E-1,-1.1004318E0,1.2837957E-2,2.9264802E-2,1.5560939E-2,1.001884E-3,9.847592E-3,-5.0352304E-3,-2.8389594E-2,-3.6158112E-3,-7.386628E-3,-2.1018904E-2,7.7338493E-3,-1.795016E-2,-3.402336E-2,-1.6693713E-2,-6.52114E-2,-3.3035293E-2],"categories":[],"categories_nodes":[],"categories_segments":[],"categories_sizes":[],"default_left":[0,0,1,0,0,0,0,0,0,0,0,0,0,0,1,0,0,0,0,0,0,0,0,0,0,0,0,0,0,0,0],"id":23,"left_children":[1,3,5,7,9,11,13,15,17,19,21,23,25,27,29,-1,-1,-1,-1,-1,-1,-1,-1,-1,-1,-1,-1,-1,-1,-1,-1],"loss_changes":[4.8667686E3,1.2022683E3,6.589519E2,3.338811E2,3.8793646E2,5.254523E2,1.535653E2,3.2765747E2,1.9586334E2,3.567227E2,2.3780135E2,4.3377905E2,1.0264159E2,1.16014404E2,5.4695984E1,0E0,0E0,0E0,0E0,0E0,0E0,0E0,0E0,0E0,0E0,0E0,0E0,0E0,0E0,0E0,0E0],"parents":[2147483647,0,0,1,1,2,2,3,3,4,4,5,5,6,6,7,7,8,8,9,9,10,10,11,11,12,12,13,13,14,14],"right_children":[2,4,6,8,10,12,14,16,18,20,22,24,26,28,30,-1,-1,-1,-1,-1,-1,-1,-1,-1,-1,-1,-1,-1,-1,-1,-1],"split_conditions":[5.167309E-1,3.7348282E-1,6.9166136E-1,-4.2768E4,1E0,4E0,9.220367E-2,4.5359567E-2,2.424E3,3.874E3,1.03E4,-5.7024E4,9.220367E-2,8.5282844E-1,5E-4,1.2837957E-2,2.9264802E-2,1.5560939E-2,1.001884E-3,9.847592E-3,-5.0352304E-3,-2.8389594E-2,-3.6158112E-3,-7.386628E-3,-2.1018904E-2,7.7338493E-3,-1.795016E-2,-3.402336E-2,-1.6693713E-2,-6.52114E-2,-3.3035293E-2],"split_indices":[108,108,108,106,11,101,105,105,16,16,15,106,105,40,58,0,0,0,0,0,0,0,0,0,0,0,0,0,0,0,0],"split_type":[0,0,0,0,0,0,0,0,0,0,0,0,0,0,0,0,0,0,0,0,0,0,0,0,0,0,0,0,0,0,0],"sum_hessian":[8.450311E4,5.197082E4,3.2532285E4,2.4349727E4,2.7621094E4,2.7493938E4,5.0383486E3,1.300211E4,1.1347617E4,2.0638314E4,6.9827783E3,2.355649E4,3.9374458E3,4.4193857E3,6.189631E2,4.8352393E3,8.166871E3,8.1187964E3,3.2288203E3,1.5156455E4,5.4818594E3,1.161099E3,5.821679E3,1.0660696E4,1.2895795E4,3.500801E3,4.3664484E2,2.9876716E3,1.4317142E3,4.2160107E2,1.9736197E2],"tree_param":{"num_deleted":"0","num_feature":"109","num_nodes":"31","size_leaf_vector":"1"}},{"base_weights":[-8.300071E-5,1.621904E-1,-2.1249484E-1,4.1082442E-1,9.021177E-2,-1.07304305E-2,-3.3124924E-1,4.8806086E-1,2.0710205E-1,1.682252E-1,-1.4768939E-1,2.5732258E-1,-1.6410343E-1,-2.9069397E-1,-8.1032556E-1,2.5460524E-2,-1.715432E-2,1.755868E-2,2.9644128E-3,1.2593204E-2,-3.7179228E-3,1.2995818E-4,-1.5941072E-2,8.996519E-3,3.1767175E-2,3.779343E-3,-1.6721528E-2,-1.0768825E-2,-2.6517073E-2,-4.768939E-2,-1.7625785E-2],"categories":[],"categories_nodes":[],"categories_segments":[],"categories_sizes":[],"default_left":[1,0,0,0,0,1,0,0,0,0,1,0,0,1,1,0,0,0,0,0,0,0,0,0,0,0,0,0,0,0,0],"id":24,"left_children":[1,3,5,7,9,11,13,15,17,19,21,23,25,27,29,-1,-1,-1,-1,-1,-1,-1,-1,-1,-1,-1,-1,-1,-1,-1,-1],"loss_changes":[2.898415E3,8.530842E2,8.7258484E2,1.6828992E2,6.861566E2,5.548139E2,4.4517188E2,1.3656787E2,6.266761E1,5.648848E2,2.348148E2,1.4357346E2,3.5046173E2,3.8140417E2,1.1713855E2,0E0,0E0,0E0,0E0,0E0,0E0,0E0,0E0,0E0,0E0,0E0,0E0,0E0,0E0,0E0,0E0],"parents":[2147483647,0,0,1,1,2,2,3,3,4,4,5,5,6,6,7,7,8,8,9,9,10,10,11,11,12,12,13,13,14,14],"right_children":[2,4,6,8,10,12,14,16,18,20,22,24,26,28,30,-1,-1,-1,-1,-1,-1,-1,-1,-1,-1,-1,-1,-1,-1,-1,-1],"split_conditions":[4.365065E-1,2.2888342E-1,1E0,1E0,1E0,4.4160435E-1,9.6421316E-2,2.2702E4,1.4916746E-1,3.826E3,2.42E-2,2E0,1E0,6.5668505E-1,1.07666664E-1,2.5460524E-2,-1.715432E-2,1.755868E-2,2.9644128E-3,1.2593204E-2,-3.7179228E-3,1.2995818E-4,-1.5941072E-2,8.996519E-3,3.1767175E-2,3.779343E-3,-1.6721528E-2,-1.0768825E-2,-2.6517073E-2,-4.768939E-2,-1.7625785E-2],"split_indices":[40,40,1,11,11,39,105,15,40,16,50,12,2,39,105,0,0,0,0,0,0,0,0,0,0,0,0,0,0,0,0],"split_type":[0,0,0,0,0,0,0,0,0,0,0,0,0,0,0,0,0,0,0,0,0,0,0,0,0,0,0,0,0,0,0],"sum_hessian":[8.408609E4,4.7669164E4,3.641693E4,1.0700832E4,3.6968332E4,1.3493124E4,2.2923807E4,7.7581284E3,2.9427039E3,2.783942E4,9.128913E3,4.910416E3,8.582709E3,2.1136174E4,1.7876339E3,7.5659897E3,1.921387E2,1.4895193E3,1.4531846E3,2.0701756E4,7.137666E3,4.860977E3,4.2679355E3,4.0771724E3,8.332436E2,3.5656113E3,5.017097E3,1.6083331E4,5.0528423E3,1.3602834E3,4.273504E2],"tree_param":{"num_deleted":"0","num_feature":"109","num_nodes":"31","size_leaf_vector":"1"}},{"base_weights":[-3.0667293E-3,2.805928E-1,-1.6664653E-1,4.4694364E-1,1.8147893E-1,-9.473032E-2,-4.475505E-1,7.331485E-1,3.9545152E-1,4.4517735E-1,1.11227155E-1,4.1019533E-2,-2.1275593E-1,-2.0517409E-1,-5.574276E-1,4.210409E-2,2.8202152E-2,2.273828E-2,1.1514916E-2,2.8258357E-2,1.1735728E-2,-6.703917E-3,9.442768E-3,-5.42054E-3,1.2383993E-2,-6.8074428E-3,-2.0445393E-2,-2.3391924E-3,-3.0419886E-2,-3.6232293E-2,-2.2055522E-2],"categories":[],"categories_nodes":[],"categories_segments":[],"categories_sizes":[],"default_left":[0,0,0,0,0,1,0,0,0,0,0,1,0,1,0,0,0,0,0,0,0,0,0,0,0,0,0,0,0,0,0],"id":25,"left_children":[1,3,5,7,9,11,13,15,17,19,21,23,25,27,29,-1,-1,-1,-1,-1,-1,-1,-1,-1,-1,-1,-1,-1,-1,-1,-1],"loss_changes":[3.8966917E3,5.063474E2,1.0759545E3,1.6870679E2,3.5654926E2,6.794617E2,2.8901074E2,3.1713684E1,9.5120605E1,1.02119995E2,2.8949667E2,6.091214E2,3.4082178E2,2.1635194E2,1.4496436E2,0E0,0E0,0E0,0E0,0E0,0E0,0E0,0E0,0E0,0E0,0E0,0E0,0E0,0E0,0E0,0E0],"parents":[2147483647,0,0,1,1,2,2,3,3,4,4,5,5,6,6,7,7,8,8,9,9,10,10,11,11,12,12,13,13,14,14],"right_children":[2,4,6,8,10,12,14,16,18,20,22,24,26,28,30,-1,-1,-1,-1,-1,-1,-1,-1,-1,-1,-1,-1,-1,-1,-1,-1],"split_conditions":[4.1143692E-1,2.8078958E-1,6.424553E-1,1.6938917E-1,1.0491791E-1,-5.6133E4,1.539E3,-3.8016E4,1E0,1.6168506E-1,1E0,4.6567753E-2,1E0,5.896331E-1,-4.103E3,4.210409E-2,2.8202152E-2,2.273828E-2,1.1514916E-2,2.8258357E-2,1.1735728E-2,-6.703917E-3,9.442768E-3,-5.42054E-3,1.2383993E-2,-6.8074428E-3,-2.0445393E-2,-2.3391924E-3,-3.0419886E-2,-3.6232293E-2,-2.2055522E-2],"split_indices":[108,40,108,108,39,106,16,106,11,107,78,105,11,38,18,0,0,0,0,0,0,0,0,0,0,0,0,0,0,0,0],"split_type":[0,0,0,0,0,0,0,0,0,0,0,0,0,0,0,0,0,0,0,0,0,0,0,0,0,0,0,0,0,0,0],"sum_hessian":[8.3976664E4,3.071458E4,5.3262086E4,1.1466282E4,1.9248299E4,4.240661E4,1.0855476E4,1.7463633E3,9.719919E3,4.0480657E3,1.5200232E4,1.9722723E4,2.2683887E4,3.3870007E3,7.468475E3,1.059732E3,6.866312E2,7.1502007E3,2.569718E3,2.5771096E3,1.4709559E3,3.653723E3,1.154651E4,1.144653E4,8.276193E3,1.6314109E4,6.3697773E3,2.4325764E3,9.5442426E2,3.06171E3,4.406765E3],"tree_param":{"num_deleted":"0","num_feature":"109","num_nodes":"31","size_leaf_vector":"1"}},{"base_weights":[2.666013E-3,1.614651E-1,-2.541988E-1,3.1835845E-1,4.0953133E-2,-7.54211E-2,-3.4729123E-1,4.1892424E-1,1.9052662E-1,1.13727555E-1,-1.2173605E-1,1.5180781E-1,-2.4642548E-1,-2.829505E-1,-5.7442254E-1,1.0987286E-2,2.648342E-2,1.685163E-2,4.698527E-3,1.2147728E-2,-1.5588682E-3,-1.38592785E-2,-7.383257E-4,-1.1971471E-2,1.4821413E-2,-2.3294466E-2,-3.544379E-3,-2.0291789E-2,-9.134258E-3,-2.6491517E-2,-5.0459724E-2],"categories":[],"categories_nodes":[],"categories_segments":[],"categories_sizes":[],"default_left":[1,0,0,0,0,0,0,0,0,1,1,0,0,1,0,0,0,0,0,0,0,0,0,0,0,0,0,0,0,0,0],"id":26,"left_children":[1,3,5,7,9,11,13,15,17,19,21,23,25,27,29,-1,-1,-1,-1,-1,-1,-1,-1,-1,-1,-1,-1,-1,-1,-1,-1],"loss_changes":[3.4142363E3,9.779846E2,5.321736E2,2.88792E2,3.4638953E2,4.255586E2,3.0713232E2,2.7727783E2,1.3995605E2,3.7853076E2,1.5035773E2,2.6617227E2,2.4070059E2,2.0184424E2,8.943811E1,0E0,0E0,0E0,0E0,0E0,0E0,0E0,0E0,0E0,0E0,0E0,0E0,0E0,0E0,0E0,0E0],"parents":[2147483647,0,0,1,1,2,2,3,3,4,4,5,5,6,6,7,7,8,8,9,9,10,10,11,11,12,12,13,13,14,14],"right_children":[2,4,6,8,10,12,14,16,18,20,22,24,26,28,30,-1,-1,-1,-1,-1,-1,-1,-1,-1,-1,-1,-1,-1,-1,-1,-1],"split_conditions":[5.182781E-1,3.6531E-1,1E0,-3.7422E4,2.1920572E-1,1E0,6.730293E-1,4.462E-2,2.8078958E-1,1.7247853E-1,1.5025E-1,1.9253956E0,2E0,1.626E-1,9.742E-2,1.0987286E-2,2.648342E-2,1.685163E-2,4.698527E-3,1.2147728E-2,-1.5588682E-3,-1.38592785E-2,-7.383257E-4,-1.1971471E-2,1.4821413E-2,-2.3294466E-2,-3.544379E-3,-2.0291789E-2,-9.134258E-3,-2.6491517E-2,-5.0459724E-2],"split_indices":[108,108,1,106,107,2,108,105,40,38,104,38,102,104,105,0,0,0,0,0,0,0,0,0,0,0,0,0,0,0,0],"split_type":[0,0,0,0,0,0,0,0,0,0,0,0,0,0,0,0,0,0,0,0,0,0,0,0,0,0,0,0,0,0,0],"sum_hessian":[8.3700984E4,5.172432E4,3.1976664E4,2.2469656E4,2.9254666E4,1.0949913E4,2.102675E4,1.2574763E4,9.894893E3,2.0213174E4,9.041493E3,4.7020234E3,6.24789E3,1.6386969E4,4.6397827E3,4.4943853E3,8.080378E3,3.929744E3,5.965149E3,1.0684235E4,9.5289375E3,3.6849233E3,5.3565693E3,1.2688331E3,3.4331904E3,2.7758135E3,3.4720767E3,7.3615713E3,9.025396E3,4.2101855E3,4.2959717E2],"tree_param":{"num_deleted":"0","num_feature":"109","num_nodes":"31","size_leaf_vector":"1"}},{"base_weights":[-2.7357365E-3,1.2785129E-1,-2.2254512E-1,2.0474397E-1,-1.0034515E-1,-9.5887735E-2,-3.9256012E-1,3.169807E-1,6.617797E-2,-3.5874745E-1,6.9160797E-3,2.9413702E-2,-2.8934768E-1,-3.4812316E-1,-8.941969E-1,2.0094154E-2,4.102655E-3,1.314234E-2,-1.5183588E-3,-1.2503633E-2,-3.7925392E-2,2.125675E-2,-2.4018504E-3,7.22642E-3,-9.81609E-3,-3.2173593E-3,-1.8538065E-2,-1.2777663E-2,-2.8472407E-2,-3.287687E-2,-6.1716307E-2],"categories":[],"categories_nodes":[],"categories_segments":[],"categories_sizes":[],"default_left":[1,0,1,0,0,0,0,1,0,0,0,1,1,1,1,0,0,0,0,0,0,0,0,0,0,0,0,0,0,0,0],"id":27,"left_children":[1,3,5,7,9,11,13,15,17,19,21,23,25,27,29,-1,-1,-1,-1,-1,-1,-1,-1,-1,-1,-1,-1,-1,-1,-1,-1],"loss_changes":[2.3894385E3,9.163046E2,6.680105E2,6.074336E2,3.6480334E2,4.310107E2,2.9492273E2,4.3038965E2,3.319195E2,1.6753946E2,2.1380336E2,2.8045865E2,1.2800531E2,2.4915881E2,8.589191E1,0E0,0E0,0E0,0E0,0E0,0E0,0E0,0E0,0E0,0E0,0E0,0E0,0E0,0E0,0E0,0E0],"parents":[2147483647,0,0,1,1,2,2,3,3,4,4,5,5,6,6,7,7,8,8,9,9,10,10,11,11,12,12,13,13,14,14],"right_children":[2,4,6,8,10,12,14,16,18,20,22,24,26,28,30,-1,-1,-1,-1,-1,-1,-1,-1,-1,-1,-1,-1,-1,-1,-1,-1],"split_conditions":[4.8485148E-1,1E0,5.786676E-1,1.876E3,1E0,3.055E3,1E0,2.7130058E-1,1E0,6.751056E-1,1.4916746E-1,2.5572714E-1,2.4872969E-1,4.1257286E-1,4.92E-2,2.0094154E-2,4.102655E-3,1.314234E-2,-1.5183588E-3,-1.2503633E-2,-3.7925392E-2,2.125675E-2,-2.4018504E-3,7.22642E-3,-9.81609E-3,-3.2173593E-3,-1.8538065E-2,-1.2777663E-2,-2.8472407E-2,-3.287687E-2,-6.1716307E-2],"split_indices":[40,11,39,16,78,16,0,38,1,39,40,38,39,38,69,0,0,0,0,0,0,0,0,0,0,0,0,0,0,0,0],"split_type":[0,0,0,0,0,0,0,0,0,0,0,0,0,0,0,0,0,0,0,0,0,0,0,0,0,0,0,0,0,0,0],"sum_hessian":[8.3241375E4,5.2218934E4,3.102244E4,3.905809E4,1.3160843E4,1.7779025E4,1.3243414E4,2.1578492E4,1.7479598E4,3.8598235E3,9.30102E3,1.0790809E4,6.988216E3,1.2167283E4,1.0761315E3,1.5849722E4,5.7287705E3,5.7548555E3,1.1724743E4,3.0360889E3,8.2373456E2,1.0794163E3,8.221604E3,7.1466875E3,3.6441216E3,1.8572311E3,5.130985E3,8.58058E3,3.5867026E3,6.3631854E2,4.3981287E2],"tree_param":{"num_deleted":"0","num_feature":"109","num_nodes":"31","size_leaf_vector":"1"}},{"base_weights":[-2.1256625E-3,8.777541E-2,-2.2914499E-1,1.7363524E-1,-9.991649E-2,-6.779502E-2,-3.4575632E-1,2.7869478E-1,-2.229837E-3,-5.54029E-2,-5.6472147E-1,-3.7499344E-1,3.3366125E-2,-3.6836478E-1,4.3909445E-1,1.725653E-2,1.6177762E-3,4.465736E-3,-1.0386692E-2,-6.1495155E-3,7.4711475E-3,8.379313E-2,-2.9191364E-2,-8.603296E-3,-3.9465137E-2,5.8819368E-3,-1.3658208E-2,-1.6752748E-2,-3.874283E-2,3.184595E-2,-4.828183E-2],"categories":[],"categories_nodes":[],"categories_segments":[],"categories_sizes":[],"default_left":[1,0,0,1,0,0,1,0,0,0,0,1,0,0,1,0,0,0,0,0,0,0,0,0,0,0,0,0,0,0,0],"id":28,"left_children":[1,3,5,7,9,11,13,15,17,19,21,23,25,27,29,-1,-1,-1,-1,-1,-1,-1,-1,-1,-1,-1,-1,-1,-1,-1,-1],"loss_changes":[1.6956892E3,9.591239E2,4.4342444E2,7.544955E2,3.8647803E2,3.0732263E2,2.4291675E2,4.18365E2,2.873399E2,2.360427E2,7.086566E1,2.0583002E2,1.9222348E2,1.798009E2,1.0718887E2,0E0,0E0,0E0,0E0,0E0,0E0,0E0,0E0,0E0,0E0,0E0,0E0,0E0,0E0,0E0,0E0],"parents":[2147483647,0,0,1,1,2,2,3,3,4,4,5,5,6,6,7,7,8,8,9,9,10,10,11,11,12,12,13,13,14,14],"right_children":[2,4,6,8,10,12,14,16,18,20,22,24,26,28,30,-1,-1,-1,-1,-1,-1,-1,-1,-1,-1,-1,-1,-1,-1,-1,-1],"split_conditions":[6.2124807E-1,3.117E3,1.649E3,1.9048974E-1,9.220367E-2,1E0,2E0,1.7052E4,1E0,5E0,3.076923E-2,3.2856146E-1,7.193617E-1,1E0,5.661348E-1,1.725653E-2,1.6177762E-3,4.465736E-3,-1.0386692E-2,-6.1495155E-3,7.4711475E-3,8.379313E-2,-2.9191364E-2,-8.603296E-3,-3.9465137E-2,5.8819368E-3,-1.3658208E-2,-1.6752748E-2,-3.874283E-2,3.184595E-2,-4.828183E-2],"split_indices":[39,16,16,38,105,78,73,15,11,102,104,38,39,0,38,0,0,0,0,0,0,0,0,0,0,0,0,0,0,0,0],"split_type":[0,0,0,0,0,0,0,0,0,0,0,0,0,0,0,0,0,0,0,0,0,0,0,0,0,0,0,0,0,0,0],"sum_hessian":[8.308223E4,5.9514664E4,2.3567564E4,4.0834816E4,1.867985E4,9.8878125E3,1.3679752E4,2.556314E4,1.5271674E4,1.7048283E4,1.6315663E3,2.4487944E3,7.4390186E3,1.3297241E4,3.8251062E2,2.013302E4,5.430122E3,1.0565634E4,4.70604E3,1.28188E4,4.229484E3,1.3061807E1,1.6185044E3,1.6446598E3,8.041346E2,5.835354E3,1.6036642E3,1.2291817E4,1.0054242E3,3.3577142E2,4.6739197E1],"tree_param":{"num_deleted":"0","num_feature":"109","num_nodes":"31","size_leaf_vector":"1"}},{"base_weights":[-6.5682404E-4,8.254948E-2,-2.001044E-1,2.3957793E-1,-1.7796306E-2,-1.23872966E-1,-4.512074E-1,3.3647683E-1,2.4655396E-2,2.0666474E-2,-5.045228E-1,-5.3885203E-2,-3.5645205E-1,-3.1931806E-1,-5.876142E-1,4.6153883E-3,2.1414729E-2,-1.02725625E-2,6.3581066E-3,5.478451E-3,-8.588792E-3,-3.310802E-2,-8.321645E-3,-1.7581133E-2,6.94697E-4,-2.1182826E-2,1.1199272E-2,-6.951683E-2,-1.4443256E-2,4.8834827E-2,-3.0437877E-2],"categories":[],"categories_nodes":[],"categories_segments":[],"categories_sizes":[],"default_left":[1,0,1,1,0,0,1,0,0,0,1,0,0,0,0,0,0,0,0,0,0,0,0,0,0,0,0,0,0,0,0],"id":29,"left_children":[1,3,5,7,9,11,13,15,17,19,21,23,25,27,29,-1,-1,-1,-1,-1,-1,-1,-1,-1,-1,-1,-1,-1,-1,-1,-1],"loss_changes":[1.3756147E3,9.216481E2,4.670326E2,4.7491333E2,6.6810175E2,3.046987E2,1.0204089E2,3.5234106E2,1.672051E2,5.658759E2,1.391842E2,2.904203E2,1.6899951E2,9.3896484E1,9.2944336E1,0E0,0E0,0E0,0E0,0E0,0E0,0E0,0E0,0E0,0E0,0E0,0E0,0E0,0E0,0E0,0E0],"parents":[2147483647,0,0,1,1,2,2,3,3,4,4,5,5,6,6,7,7,8,8,9,9,10,10,11,11,12,12,13,13,14,14],"right_children":[2,4,6,8,10,12,14,16,18,20,22,24,26,28,30,-1,-1,-1,-1,-1,-1,-1,-1,-1,-1,-1,-1,-1,-1,-1,-1],"split_conditions":[6.167407E-1,1E0,4.872281E-1,1.4872412E-1,9.305455E-2,5.373E3,-4.455E4,1E0,1.2064E-1,1.8135E4,1.07666664E-1,2E0,1E0,-5.153E3,4.995E4,4.6153883E-3,2.1414729E-2,-1.02725625E-2,6.3581066E-3,5.478451E-3,-8.588792E-3,-3.310802E-2,-8.321645E-3,-1.7581133E-2,6.94697E-4,-2.1182826E-2,1.1199272E-2,-6.951683E-2,-1.4443256E-2,4.8834827E-2,-3.0437877E-2],"split_indices":[39,1,38,38,105,16,106,78,104,15,105,28,75,18,5,0,0,0,0,0,0,0,0,0,0,0,0,0,0,0,0],"split_type":[0,0,0,0,0,0,0,0,0,0,0,0,0,0,0,0,0,0,0,0,0,0,0,0,0,0,0,0,0,0,0],"sum_hessian":[8.288985E4,5.8489543E4,2.4400307E4,2.2803527E4,3.5686016E4,1.8718975E4,5.6813315E3,1.5716912E4,7.0866143E3,3.3073402E4,2.612615E3,1.4389972E4,4.3290024E3,2.8901936E3,2.791138E3,4.2956313E3,1.142128E4,2.1836848E3,4.9029297E3,2.2622785E4,1.0450615E4,1.7811696E3,8.314453E2,2.6676113E3,1.172236E4,3.8800332E3,4.4896942E2,7.867198E1,2.8115217E3,3.661956E1,2.7545183E3],"tree_param":{"num_deleted":"0","num_feature":"109","num_nodes":"31","size_leaf_vector":"1"}},{"base_weights":[8.343486E-3,1.5706365E-1,-2.2703113E-1,3.600665E-1,8.668413E-2,-1.3216066E-1,-3.836569E-1,1.510606E-1,4.2240807E-1,1.3905503E-1,-1.2160307E-1,-1.2166397E-2,-2.9498774E-1,-4.220107E-1,4.900891E-2,8.671566E-3,-6.16993E-2,3.0768482E-2,1.7985446E-2,-4.202753E-3,1.1754873E-2,3.8939675E-3,-1.676746E-2,1.4177108E-3,-3.2983888E-2,-3.5186464E-3,-1.9671682E-2,-3.0770278E-2,-1.6523952E-2,8.623372E-3,-3.0202104E-2],"categories":[],"categories_nodes":[],"categories_segments":[],"categories_sizes":[],"default_left":[0,0,1,0,0,0,1,0,0,1,0,1,0,1,0,0,0,0,0,0,0,0,0,0,0,0,0,0,0,0,0],"id":30,"left_children":[1,3,5,7,9,11,13,15,17,19,21,23,25,27,29,-1,-1,-1,-1,-1,-1,-1,-1,-1,-1,-1,-1,-1,-1,-1,-1],"loss_changes":[2.9081624E3,7.2734424E2,4.7793518E2,1.7070618E2,4.1240826E2,3.9144333E2,2.0137585E2,9.3560074E1,1.2190698E2,6.4736725E2,3.2392484E2,3.0268408E2,1.8793341E2,1.9710034E2,7.98362E1,0E0,0E0,0E0,0E0,0E0,0E0,0E0,0E0,0E0,0E0,0E0,0E0,0E0,0E0,0E0,0E0],"parents":[2147483647,0,0,1,1,2,2,3,3,4,4,5,5,6,6,7,7,8,8,9,9,10,10,11,11,12,12,13,13,14,14],"right_children":[2,4,6,8,10,12,14,16,18,20,22,24,26,28,30,-1,-1,-1,-1,-1,-1,-1,-1,-1,-1,-1,-1,-1,-1,-1,-1],"split_conditions":[5.1529616E-1,2.9665005E-1,2.961748E-1,1E0,6.795E5,1.8332E4,1E0,2.3964E4,1.5727332E-1,1.6515E4,-1.22778E5,3.542E-1,1E0,1.3333334E-1,7.752685E-1,8.671566E-3,-6.16993E-2,3.0768482E-2,1.7985446E-2,-4.202753E-3,1.1754873E-2,3.8939675E-3,-1.676746E-2,1.4177108E-3,-3.2983888E-2,-3.5186464E-3,-1.9671682E-2,-3.0770278E-2,-1.6523952E-2,8.623372E-3,-3.0202104E-2],"split_indices":[108,108,38,78,8,15,75,15,108,7,106,64,1,104,38,0,0,0,0,0,0,0,0,0,0,0,0,0,0,0,0],"split_type":[0,0,0,0,0,0,0,0,0,0,0,0,0,0,0,0,0,0,0,0,0,0,0,0,0,0,0,0,0,0,0],"sum_hessian":[8.30766E4,5.0909832E4,3.2166768E4,1.310516E4,3.780467E4,2.0033834E4,1.2132934E4,3.011672E3,1.0093487E4,3.02093E4,7.5953735E3,1.153458E4,8.499254E3,1.1145005E4,9.8792804E2,2.964663E3,4.700925E1,2.4732004E3,7.620287E3,9.090909E3,2.111839E4,3.929103E3,3.6662703E3,1.0856168E4,6.784119E2,2.5904902E3,5.9087637E3,3.5784558E3,7.5665493E3,8.314747E2,1.564534E2],"tree_param":{"num_deleted":"0","num_feature":"109","num_nodes":"31","size_leaf_vector":"1"}},{"base_weights":[3.0145606E-3,2.2119755E-1,-1.4729379E-1,3.7787166E-1,1.4174514E-1,-2.7414586E-2,-2.603237E-1,6.612674E-1,3.3840936E-1,3.7950104E-1,8.852074E-2,5.6381237E-2,-2.3719193E-1,-1.5131949E-1,-3.881791E-1,3.35866E-2,-8.516047E-2,1.988847E-2,8.540343E-3,2.4586027E-2,8.944402E-3,1.1595367E-2,-3.9889765E-4,5.4459656E-3,-1.1694598E-2,-1.3611465E-2,2.480954E-2,4.8240228E-4,-1.211574E-2,-1.573713E-2,-3.130107E-2],"categories":[],"categories_nodes":[],"categories_segments":[],"categories_sizes":[],"default_left":[0,0,1,0,0,0,1,0,0,0,1,1,0,0,0,0,0,0,0,0,0,0,0,0,0,0,0,0,0,0,0],"id":31,"left_children":[1,3,5,7,9,11,13,15,17,19,21,23,25,27,29,-1,-1,-1,-1,-1,-1,-1,-1,-1,-1,-1,-1,-1,-1,-1,-1],"loss_changes":[2.7109968E3,4.1969104E2,6.6321045E2,1.2665698E2,2.8310968E2,4.175812E2,3.5104578E2,3.5430054E1,9.9030396E1,9.204315E1,2.5298582E2,2.5890042E2,1.7436642E2,1.9921259E2,2.0229309E2,0E0,0E0,0E0,0E0,0E0,0E0,0E0,0E0,0E0,0E0,0E0,0E0,0E0,0E0,0E0,0E0],"parents":[2147483647,0,0,1,1,2,2,3,3,4,4,5,5,6,6,7,7,8,8,9,9,10,10,11,11,12,12,13,13,14,14],"right_children":[2,4,6,8,10,12,14,16,18,20,22,24,26,28,30,-1,-1,-1,-1,-1,-1,-1,-1,-1,-1,-1,-1,-1,-1,-1,-1],"split_conditions":[4.2985067E-1,2.692858E-1,4.9566582E-1,1.5727332E-1,1.0491791E-1,1E0,-3.7422E4,3.915E5,1E0,1.647351E-1,-6.9498E4,7.042514E-1,3E0,1E0,6.600071E-1,3.35866E-2,-8.516047E-2,1.988847E-2,8.540343E-3,2.4586027E-2,8.944402E-3,1.1595367E-2,-3.9889765E-4,5.4459656E-3,-1.1694598E-2,-1.3611465E-2,2.480954E-2,4.8240228E-4,-1.211574E-2,-1.573713E-2,-3.130107E-2],"split_indices":[108,40,40,108,39,11,106,5,11,107,106,39,11,1,108,0,0,0,0,0,0,0,0,0,0,0,0,0,0,0,0],"split_type":[0,0,0,0,0,0,0,0,0,0,0,0,0,0,0,0,0,0,0,0,0,0,0,0,0,0,0,0,0,0,0],"sum_hessian":[8.266365E4,3.3718473E4,4.8945176E4,1.1344409E4,2.2374064E4,2.3753512E4,2.5191664E4,1.3846783E3,9.959731E3,4.0914097E3,1.8282654E4,1.697397E4,6.7795425E3,1.3599486E4,1.1592177E4,1.3792899E3,5.3884397E0,7.353839E3,2.6058926E3,2.6228057E3,1.4686041E3,7.3540024E3,1.0928653E4,1.4373127E4,2.600843E3,6.4710186E3,3.08524E2,4.911719E3,8.687768E3,8.85914E3,2.7330369E3],"tree_param":{"num_deleted":"0","num_feature":"109","num_nodes":"31","size_leaf_vector":"1"}},{"base_weights":[4.443317E-3,1.6989535E-1,-1.6847958E-1,3.7024355E-1,1.11587435E-1,-9.328297E-2,-3.635476E-1,5.774843E-1,3.00137E-1,1.4394526E-1,-2.7091295E-1,-3.3994246E-2,-2.9528955E-1,-2.0592076E-1,-4.8790008E-1,3.216879E-2,1.1802829E-2,2.1866655E-2,8.946454E-3,-9.45951E-4,1.1598642E-2,-6.5032304E-3,-3.662749E-2,4.2912224E-3,-7.105989E-3,-1.0207207E-2,-2.7223486E-2,-1.761727E-2,-2.4794585E-3,-3.4274355E-2,-1.8262124E-2],"categories":[],"categories_nodes":[],"categories_segments":[],"categories_sizes":[],"default_left":[0,0,0,0,0,1,1,1,0,1,0,1,1,1,0,0,0,0,0,0,0,0,0,0,0,0,0,0,0,0,0],"id":32,"left_children":[1,3,5,7,9,11,13,15,17,19,21,23,25,27,29,-1,-1,-1,-1,-1,-1,-1,-1,-1,-1,-1,-1,-1,-1,-1,-1],"loss_changes":[2.35354E3,4.9105237E2,5.899708E2,1.3750623E2,4.0307526E2,3.4770676E2,2.1925647E2,5.3712708E1,1.1770624E2,4.3045105E2,1.65072E2,2.9081372E2,1.495014E2,1.12992584E2,1.5134375E2,0E0,0E0,0E0,0E0,0E0,0E0,0E0,0E0,0E0,0E0,0E0,0E0,0E0,0E0,0E0,0E0],"parents":[2147483647,0,0,1,1,2,2,3,3,4,4,5,5,6,6,7,7,8,8,9,9,10,10,11,11,12,12,13,13,14,14],"right_children":[2,4,6,8,10,12,14,16,18,20,22,24,26,28,30,-1,-1,-1,-1,-1,-1,-1,-1,-1,-1,-1,-1,-1,-1,-1,-1],"split_conditions":[4.7320655E-1,2.624254E-1,1E0,6.654144E-2,1E0,6.4923626E-1,5.671202E-1,5.74E-2,-5.6133E4,4.6567753E-2,1.62E5,-5.6133E4,7.193617E-1,1.57825E-1,-3.94E3,3.216879E-2,1.1802829E-2,2.1866655E-2,8.946454E-3,-9.45951E-4,1.1598642E-2,-6.5032304E-3,-3.662749E-2,4.2912224E-3,-7.105989E-3,-1.0207207E-2,-2.7223486E-2,-1.761727E-2,-2.4794585E-3,-3.4274355E-2,-1.8262124E-2],"split_indices":[108,108,11,39,0,108,108,48,106,105,5,106,39,104,18,0,0,0,0,0,0,0,0,0,0,0,0,0,0,0,0],"split_type":[0,0,0,0,0,0,0,0,0,0,0,0,0,0,0,0,0,0,0,0,0,0,0,0,0,0,0,0,0,0,0],"sum_hessian":[8.225958E4,4.203789E4,4.0221688E4,9.475242E3,3.2562646E4,2.9031742E4,1.1189945E4,2.3932778E3,7.0819644E3,3.0023424E4,2.5392239E3,2.2445252E4,6.5864897E3,4.9359214E3,6.254024E3,2.0053789E3,3.8789877E2,3.3206687E3,3.7612954E3,1.0534253E4,1.948917E4,1.946589E3,5.9263495E2,1.0647022E4,1.179823E4,4.8238394E3,1.7626505E3,2.5480713E3,2.38785E3,2.3936104E3,3.8604138E3],"tree_param":{"num_deleted":"0","num_feature":"109","num_nodes":"31","size_leaf_vector":"1"}},{"base_weights":[1.2389E-3,1.135202E-1,-2.0934032E-1,2.695895E-1,3.8426872E-2,-2.4116416E-1,2.2669446E-1,7.028458E-2,3.3097374E-1,6.769257E-2,-2.9865322E-1,-1.14812344E-1,-3.4421793E-1,3.1337428E-1,-3.0716997E-1,5.5205524E-3,-2.4983553E-2,-2.3842247E-3,1.8053282E-2,1.4978222E-3,2.3602864E-2,-3.0317103E-2,-2.9456213E-3,-1.2988969E-2,6.6365227E-3,-1.4152698E-2,-2.8401954E-2,1.950649E-2,-1.5327326E-2,6.187379E-3,-6.842853E-2],"categories":[],"categories_nodes":[],"categories_segments":[],"categories_sizes":[],"default_left":[0,0,0,0,0,1,1,1,0,0,1,0,1,0,0,0,0,0,0,0,0,0,0,0,0,0,0,0,0,0,0],"id":33,"left_children":[1,3,5,7,9,11,13,15,17,19,21,23,25,27,29,-1,-1,-1,-1,-1,-1,-1,-1,-1,-1,-1,-1,-1,-1,-1,-1],"loss_changes":[1.9423204E3,6.279284E2,3.964828E2,2.1291467E2,3.5688556E2,3.4665747E2,9.0044525E1,9.381531E1,1.516388E2,5.0790604E2,2.1315167E2,4.293125E2,2.0059338E2,7.9712875E1,1.2458345E2,0E0,0E0,0E0,0E0,0E0,0E0,0E0,0E0,0E0,0E0,0E0,0E0,0E0,0E0,0E0,0E0],"parents":[2147483647,0,0,1,1,2,2,3,3,4,4,5,5,6,6,7,7,8,8,9,9,10,10,11,11,12,12,13,13,14,14],"right_children":[2,4,6,8,10,12,14,16,18,20,22,24,26,28,30,-1,-1,-1,-1,-1,-1,-1,-1,-1,-1,-1,-1,-1,-1,-1,-1],"split_conditions":[5.319969E-1,3.352293E-1,1E0,1E0,9.305455E-2,-5.7024E4,9.801E-1,1.526E-1,3.161249E-2,7.88E-2,1.0576294E-1,4.4304024E-2,6.790188E-1,1.7E1,1E0,5.5205524E-3,-2.4983553E-2,-2.3842247E-3,1.8053282E-2,1.4978222E-3,2.3602864E-2,-3.0317103E-2,-2.9456213E-3,-1.2988969E-2,6.6365227E-3,-1.4152698E-2,-2.8401954E-2,1.950649E-2,-1.5327326E-2,6.187379E-3,-6.842853E-2],"split_indices":[108,108,34,78,105,106,52,41,105,105,105,105,108,30,2,0,0,0,0,0,0,0,0,0,0,0,0,0,0,0,0],"split_type":[0,0,0,0,0,0,0,0,0,0,0,0,0,0,0,0,0,0,0,0,0,0,0,0,0,0,0,0,0,0,0],"sum_hessian":[8.214618E4,5.357848E4,2.8567701E4,1.740416E4,3.617432E4,2.6624936E4,1.9427654E3,4.098646E3,1.3305514E4,3.3285254E4,2.8890664E3,1.1961425E4,1.4663512E4,1.6717484E3,2.71017E2,3.829822E3,2.6882385E2,9.79499E2,1.2326015E4,3.0445127E4,2.8401265E3,1.2645652E3,1.6245012E3,7.543639E3,4.4177856E3,1.1518183E4,3.1453286E3,1.4878953E3,1.8385312E2,1.9338722E2,7.762978E1],"tree_param":{"num_deleted":"0","num_feature":"109","num_nodes":"31","size_leaf_vector":"1"}},{"base_weights":[6.8428353E-3,2.2343194E-1,-9.9319264E-2,2.682693E-1,8.078666E-3,-5.837531E-2,-3.8320056E-1,5.3794396E-1,2.3382476E-1,9.055681E-2,-3.250056E-1,1.149071E-1,-1.189969E-1,-4.607451E-1,-1.4519076E-1,-1.021328E-1,2.7383178E-2,3.0906314E-3,1.3912789E-2,1.599064E-2,-7.8618265E-4,1.1207878E-3,-2.56929E-2,9.44262E-3,-7.637167E-3,-4.4216085E-3,-2.22188E-2,-3.583456E-2,-1.7384171E-2,6.557628E-4,-2.5633195E-2],"categories":[],"categories_nodes":[],"categories_segments":[],"categories_sizes":[],"default_left":[1,0,0,1,1,0,0,0,0,0,0,1,0,1,0,0,0,0,0,0,0,0,0,0,0,0,0,0,0,0,0],"id":34,"left_children":[1,3,5,7,9,11,13,15,17,19,21,23,25,27,29,-1,-1,-1,-1,-1,-1,-1,-1,-1,-1,-1,-1,-1,-1,-1,-1],"loss_changes":[1.8868864E3,2.6063257E2,6.4005914E2,2.0739465E2,1.2784347E2,5.055916E2,1.2804321E2,6.456622E1,1.5140186E2,9.088508E1,6.0611107E1,2.4691248E2,3.545613E2,1.5124072E2,9.932045E1,0E0,0E0,0E0,0E0,0E0,0E0,0E0,0E0,0E0,0E0,0E0,0E0,0E0,0E0,0E0,0E0],"parents":[2147483647,0,0,1,1,2,2,3,3,4,4,5,5,6,6,7,7,8,8,9,9,10,10,11,11,12,12,13,13,14,14],"right_children":[2,4,6,8,10,12,14,16,18,20,22,24,26,28,30,-1,-1,-1,-1,-1,-1,-1,-1,-1,-1,-1,-1,-1,-1,-1,-1],"split_conditions":[3.9569816E-1,1.9065E4,6.6920465E-1,1.5727332E-1,2.89E-2,6.391442E-2,2E0,6.5385E3,1E0,1E0,1.1E-1,7.76E-2,9.305455E-2,1.3535E-1,7.2660524E-1,-1.021328E-1,2.7383178E-2,3.0906314E-3,1.3912789E-2,1.599064E-2,-7.8618265E-4,1.1207878E-3,-2.56929E-2,9.44262E-3,-7.637167E-3,-4.4216085E-3,-2.22188E-2,-3.583456E-2,-1.7384171E-2,6.557628E-4,-2.5633195E-2],"split_indices":[108,15,108,108,56,107,101,7,78,1,45,66,105,104,39,0,0,0,0,0,0,0,0,0,0,0,0,0,0,0,0],"split_type":[0,0,0,0,0,0,0,0,0,0,0,0,0,0,0,0,0,0,0,0,0,0,0,0,0,0,0,0,0,0,0],"sum_hessian":[8.205956E4,2.6991373E4,5.506819E4,2.233988E4,4.6514917E3,4.8127945E4,6.9402466E3,2.528559E3,1.9811322E4,3.7288772E3,9.226144E2,1.24732295E4,3.5654715E4,5.234039E3,1.7062074E3,8.703045E0,2.519856E3,4.0673193E3,1.5744003E4,1.1804777E3,2.5483994E3,3.2521524E2,5.973992E2,9.773378E3,2.6998523E3,3.2594223E4,3.0604915E3,1.6020416E3,3.6319976E3,1.193162E3,5.1304535E2],"tree_param":{"num_deleted":"0","num_feature":"109","num_nodes":"31","size_leaf_vector":"1"}},{"base_weights":[-2.3084513E-3,1.2892455E-1,-1.6004802E-1,4.3777543E-1,8.965269E-2,-3.236985E-1,-9.834331E-2,1.4007446E-1,4.755246E-1,1.18099555E-1,-2.3880832E-1,-4.9568766E-1,-2.384645E-1,5.9454966E-2,-1.8485071E-1,-1.4307277E-2,1.7214315E-2,2.4124391E-2,-4.5678925E-2,-2.198099E-3,1.0206461E-2,-2.709193E-2,3.7678082E-3,-2.8477823E-2,-3.8057365E-4,-6.0587884E-3,-1.9519717E-2,1.4773468E-2,-6.582763E-3,-7.631159E-3,-2.9776558E-2],"categories":[],"categories_nodes":[],"categories_segments":[],"categories_sizes":[],"default_left":[0,0,0,0,0,0,0,0,1,0,1,0,1,0,0,0,0,0,0,0,0,0,0,0,0,0,0,0,0,0,0],"id":35,"left_children":[1,3,5,7,9,11,13,15,17,19,21,23,25,27,29,-1,-1,-1,-1,-1,-1,-1,-1,-1,-1,-1,-1,-1,-1,-1,-1],"loss_changes":[1.6854827E3,5.3904297E2,3.7335797E2,5.6276245E1,3.684737E2,1.4829517E2,3.6657974E2,4.932917E1,4.3474304E1,5.0597214E2,2.9928256E2,1.20913574E2,1.20615326E2,4.2895914E2,2.2947412E2,0E0,0E0,0E0,0E0,0E0,0E0,0E0,0E0,0E0,0E0,0E0,0E0,0E0,0E0,0E0,0E0],"parents":[2147483647,0,0,1,1,2,2,3,3,4,4,5,5,6,6,7,7,8,8,9,9,10,10,11,11,12,12,13,13,14,14],"right_children":[2,4,6,8,10,12,14,16,18,20,22,24,26,28,30,-1,-1,-1,-1,-1,-1,-1,-1,-1,-1,-1,-1,-1,-1,-1,-1],"split_conditions":[4.8814762E-1,1.4916746E-1,-4.262E3,8.075E-2,9.305455E-2,2.0547E4,1E0,-8.25E2,1.872E-1,4.6567753E-2,1.07666664E-1,1E0,3.33E-2,1E0,9.6421316E-2,-1.4307277E-2,1.7214315E-2,2.4124391E-2,-4.5678925E-2,-2.198099E-3,1.0206461E-2,-2.709193E-2,3.7678082E-3,-2.8477823E-2,-3.8057365E-4,-6.0587884E-3,-1.9519717E-2,1.4773468E-2,-6.582763E-3,-7.631159E-3,-2.9776558E-2],"split_indices":[108,40,18,104,105,7,1,76,58,105,105,73,59,2,105,0,0,0,0,0,0,0,0,0,0,0,0,0,0,0,0],"split_type":[0,0,0,0,0,0,0,0,0,0,0,0,0,0,0,0,0,0,0,0,0,0,0,0,0,0,0,0,0,0,0],"sum_hessian":[8.141978E4,4.4444184E4,3.6975598E4,5.0126206E3,3.9431562E4,1.0123159E4,2.6852438E4,5.64615E2,4.448006E3,3.6289312E4,3.142251E3,3.352835E3,6.770324E3,9.508422E3,1.7344016E4,1.8276222E2,3.8185278E2,4.4264697E3,2.1536068E1,1.2584079E4,2.3705232E4,1.5990997E3,1.5431512E3,2.911953E3,4.4088202E2,3.8217544E3,2.94857E3,4.2541504E3,5.2542715E3,1.6083275E4,1.2607391E3],"tree_param":{"num_deleted":"0","num_feature":"109","num_nodes":"31","size_leaf_vector":"1"}},{"base_weights":[-1.3636724E-3,2.0283346E-1,-1.01424985E-1,4.5107797E-1,1.5473518E-1,-3.772445E-2,-2.7269074E-1,4.661189E-1,-3.3936137E-1,4.505759E-1,1.2172068E-1,4.4105206E-2,-2.1154022E-1,-1.1748163E-1,-3.99381E-1,4.477952E-3,2.474141E-2,-1.2192255E-1,-4.647727E-3,2.8468495E-2,1.1276024E-2,-2.488021E-3,8.81414E-3,7.388541E-3,-4.9917344E-3,-8.740292E-3,-3.2363366E-2,-2.799332E-2,-1.8145699E-3,-2.4208765E-2,-4.884659E-3],"categories":[],"categories_nodes":[],"categories_segments":[],"categories_sizes":[],"default_left":[0,0,0,0,0,0,0,0,0,0,0,1,0,0,1,0,0,0,0,0,0,0,0,0,0,0,0,0,0,0,0],"id":36,"left_children":[1,3,5,7,9,11,13,15,17,19,21,23,25,27,29,-1,-1,-1,-1,-1,-1,-1,-1,-1,-1,-1,-1,-1,-1,-1,-1],"loss_changes":[1.6658608E3,3.200819E2,5.969473E2,5.1891785E1,2.1933862E2,5.6730225E2,2.9164417E2,4.612384E1,4.2100143E1,6.0151733E1,1.8909137E2,4.046723E2,2.042362E2,2.3948102E2,2.0887659E2,0E0,0E0,0E0,0E0,0E0,0E0,0E0,0E0,0E0,0E0,0E0,0E0,0E0,0E0,0E0,0E0],"parents":[2147483647,0,0,1,1,2,2,3,3,4,4,5,5,6,6,7,7,8,8,9,9,10,10,11,11,12,12,13,13,14,14],"right_children":[2,4,6,8,10,12,14,16,18,20,22,24,26,28,30,-1,-1,-1,-1,-1,-1,-1,-1,-1,-1,-1,-1,-1,-1,-1,-1],"split_conditions":[3.9569816E-1,1.4916746E-1,1E0,2.286E4,1.5727332E-1,4.033E3,5.2725166E-1,7.04E-2,9.786E-1,1E0,1E0,1.1740784E-1,9.742E-2,1.03E4,2.3512E-1,4.477952E-3,2.474141E-2,-1.2192255E-1,-4.647727E-3,2.8468495E-2,1.1276024E-2,-2.488021E-3,8.81414E-3,7.388541E-3,-4.9917344E-3,-8.740292E-3,-3.2363366E-2,-2.799332E-2,-1.8145699E-3,-2.4208765E-2,-4.884659E-3],"split_indices":[108,40,11,15,108,16,108,104,43,10,78,38,105,15,104,0,0,0,0,0,0,0,0,0,0,0,0,0,0,0,0],"split_type":[0,0,0,0,0,0,0,0,0,0,0,0,0,0,0,0,0,0,0,0,0,0,0,0,0,0,0,0,0,0,0],"sum_hessian":[8.1529016E4,2.6812066E4,5.471695E4,4.3504062E3,2.246166E4,3.98838E4,1.4833149E4,4.2695728E3,8.083361E1,2.2537053E3,2.0207955E4,2.7117885E4,1.2765915E4,6.6671294E3,8.16602E3,3.0274826E2,3.9668245E3,7.557423E0,7.327619E1,1.4740876E3,7.796177E2,4.877801E3,1.5330153E4,1.5764357E4,1.1353527E4,1.1774644E4,9.9127167E2,1.0329506E3,5.6341787E3,6.3739204E3,1.7920992E3],"tree_param":{"num_deleted":"0","num_feature":"109","num_nodes":"31","size_leaf_vector":"1"}},{"base_weights":[4.7015306E-3,1.13298185E-1,-1.6840525E-1,4.2726547E-1,7.760372E-2,-1.0068542E-1,-3.428627E-1,4.45632E-1,-1.6708769E-1,1.8459487E-1,-1.3395268E-2,-7.335252E-2,-5.213796E-1,-2.8547737E-1,-8.192753E-1,2.2834456E-2,-2.5851527E-2,-1.5673237E-3,-1.409408E-1,1.1672762E-3,1.68898E-2,3.0091626E-3,-1.1047695E-2,-1.8690688E-3,-2.1102091E-2,-2.9692093E-2,2.779355E-2,-5.776396E-3,-1.854016E-2,-1.2940585E-2,-4.8285753E-2],"categories":[],"categories_nodes":[],"categories_segments":[],"categories_sizes":[],"default_left":[1,0,0,1,0,1,0,0,0,1,1,0,1,0,0,0,0,0,0,0,0,0,0,0,0,0,0,0,0,0,0],"id":37,"left_children":[1,3,5,7,9,11,13,15,17,19,21,23,25,27,29,-1,-1,-1,-1,-1,-1,-1,-1,-1,-1,-1,-1,-1,-1,-1,-1],"loss_changes":[1.5316272E3,5.610529E2,3.710324E2,5.586371E1,4.377027E2,2.6014685E2,2.3986658E2,5.300769E1,5.531577E1,5.104344E2,3.7103998E2,2.664916E2,1.0807306E2,1.1364142E2,7.719501E1,0E0,0E0,0E0,0E0,0E0,0E0,0E0,0E0,0E0,0E0,0E0,0E0,0E0,0E0,0E0,0E0],"parents":[2147483647,0,0,1,1,2,2,3,3,4,4,5,5,6,6,7,7,8,8,9,9,10,10,11,11,12,12,13,13,14,14],"right_children":[2,4,6,8,10,12,14,16,18,20,22,24,26,28,30,-1,-1,-1,-1,-1,-1,-1,-1,-1,-1,-1,-1,-1,-1,-1,-1],"split_conditions":[5.1529616E-1,1.4916746E-1,1E0,7.47E-2,-5.6133E4,6.313E3,1E0,2.3266E4,2E0,4.6567753E-2,5.52E-2,9.305455E-2,7E0,8.894172E-2,1.935E5,2.2834456E-2,-2.5851527E-2,-1.5673237E-3,-1.409408E-1,1.1672762E-3,1.68898E-2,3.0091626E-3,-1.1047695E-2,-1.8690688E-3,-2.1102091E-2,-2.9692093E-2,2.779355E-2,-5.776396E-3,-1.854016E-2,-1.2940585E-2,-4.8285753E-2],"split_indices":[108,40,11,58,106,16,0,15,101,105,66,105,74,107,8,0,0,0,0,0,0,0,0,0,0,0,0,0,0,0,0],"split_type":[0,0,0,0,0,0,0,0,0,0,0,0,0,0,0,0,0,0,0,0,0,0,0,0,0,0,0,0,0,0,0],"sum_hessian":[8.147264E4,5.0065156E4,3.1407486E4,5.109674E3,4.495548E4,2.2626174E4,8.7813125E3,4.9567515E3,1.5292223E2,2.0661684E4,2.4293797E4,2.1246916E4,1.3792577E3,7.838715E3,9.425975E2,4.900985E3,5.5766846E1,1.4643793E2,6.484295E0,1.0066989E4,1.0594694E4,1.7936209E4,6.3575884E3,1.9261035E4,1.9858809E3,1.2927485E3,8.6509186E1,2.6208792E3,5.2178354E3,1.9583861E2,7.467589E2],"tree_param":{"num_deleted":"0","num_feature":"109","num_nodes":"31","size_leaf_vector":"1"}},{"base_weights":[-2.247592E-3,1.7607899E-1,-1.0183822E-1,2.8340742E-1,8.330897E-2,-1.8298877E-3,-2.0906153E-1,4.511159E-1,2.1805017E-1,1.8222526E-1,-7.76975E-2,1.57991E-2,-6.078963E-1,-8.989948E-2,-3.0818743E-1,2.7584666E-2,1.5597336E-2,1.2276161E-2,-1.3491034E-2,-5.234852E-4,1.2498242E-2,1.0850523E-2,-7.6889913E-3,4.042229E-3,-7.470548E-3,-5.004218E-2,-1.5023378E-2,-1.0652343E-2,6.4688176E-3,-1.2478654E-2,-2.6746059E-2],"categories":[],"categories_nodes":[],"categories_segments":[],"categories_sizes":[],"default_left":[0,0,1,0,0,1,1,1,0,0,0,0,0,1,0,0,0,0,0,0,0,0,0,0,0,0,0,0,0,0,0],"id":38,"left_children":[1,3,5,7,9,11,13,15,17,19,21,23,25,27,29,-1,-1,-1,-1,-1,-1,-1,-1,-1,-1,-1,-1,-1,-1,-1,-1],"loss_changes":[1.4412292E3,2.895266E2,5.583725E2,1.4767664E2,2.484551E2,2.878793E2,2.9679968E2,5.2733643E1,1.3012134E2,1.2613806E2,1.331592E2,2.8137433E2,9.170111E1,3.082086E2,1.8216956E2,0E0,0E0,0E0,0E0,0E0,0E0,0E0,0E0,0E0,0E0,0E0,0E0,0E0,0E0,0E0,0E0],"parents":[2147483647,0,0,1,1,2,2,3,3,4,4,5,5,6,6,7,7,8,8,9,9,10,10,11,11,12,12,13,13,14,14],"right_children":[2,4,6,8,10,12,14,16,18,20,22,24,26,28,30,-1,-1,-1,-1,-1,-1,-1,-1,-1,-1,-1,-1,-1,-1,-1,-1],"split_conditions":[4.0921053E-1,3.44155E-1,5.0287825E-1,2.3667091E-1,1E0,7.218428E-1,-5.7024E4,-3.8016E4,9.795497E-2,1.64295E4,9.444486E-2,1E0,2.4E-1,4.6567753E-2,6.6361904E-1,2.7584666E-2,1.5597336E-2,1.2276161E-2,-1.3491034E-2,-5.234852E-4,1.2498242E-2,1.0850523E-2,-7.6889913E-3,4.042229E-3,-7.470548E-3,-5.004218E-2,-1.5023378E-2,-1.0652343E-2,6.4688176E-3,-1.2478654E-2,-2.6746059E-2],"split_indices":[108,40,40,108,10,108,106,106,105,7,39,11,62,105,108,0,0,0,0,0,0,0,0,0,0,0,0,0,0,0,0],"split_type":[0,0,0,0,0,0,0,0,0,0,0,0,0,0,0,0,0,0,0,0,0,0,0,0,0,0,0,0,0,0,0],"sum_hessian":[8.114984E4,2.9079479E4,5.2070367E4,1.3480932E4,1.5598547E4,2.694215E4,2.5128217E4,3.7787224E3,9.702209E3,9.662277E3,5.9362695E3,2.6181566E4,7.6058374E2,1.1411743E4,1.3716474E4,2.1917693E3,1.5869532E3,9.185452E3,5.167561E2,2.5133987E3,7.148879E3,1.2176808E3,4.718589E3,1.8785834E4,7.3957314E3,3.3286676E2,4.2771695E2,7.307699E3,4.104044E3,1.0900595E4,2.8158792E3],"tree_param":{"num_deleted":"0","num_feature":"109","num_nodes":"31","size_leaf_vector":"1"}},{"base_weights":[-6.4016236E-3,1.5023084E-1,-1.1145511E-1,1.796419E-1,-2.1049713E-1,-7.976669E-2,-4.3683168E-1,2.650901E-2,2.5191307E-1,-4.882157E-1,4.9415424E-2,-1.1847077E-1,5.006823E-1,-6.328239E-1,-2.2250092E-2,1.0564947E-2,-6.4123212E-3,1.5389037E-2,-6.387359E-3,-1.4670092E-2,-4.545173E-2,3.706555E-3,-1.1962774E-1,-4.3070475E-3,-2.0908492E-2,3.4415748E-2,6.8125683E-3,-2.3466978E-2,-3.879734E-2,-5.9760655E-3,3.632867E-2],"categories":[],"categories_nodes":[],"categories_segments":[],"categories_sizes":[],"default_left":[1,0,0,0,1,0,1,0,0,0,1,0,0,1,0,0,0,0,0,0,0,0,0,0,0,0,0,0,0,0,0],"id":39,"left_children":[1,3,5,7,9,11,13,15,17,19,21,23,25,27,29,-1,-1,-1,-1,-1,-1,-1,-1,-1,-1,-1,-1,-1,-1,-1,-1],"loss_changes":[1.3276864E3,3.4369373E2,4.9792133E2,3.3145648E2,1.7631866E2,9.887859E2,3.4822998E2,2.7467725E2,4.3161975E2,9.653842E1,7.637694E1,3.9974182E2,1.8804047E2,6.772632E1,1.0036963E2,0E0,0E0,0E0,0E0,0E0,0E0,0E0,0E0,0E0,0E0,0E0,0E0,0E0,0E0,0E0,0E0],"parents":[2147483647,0,0,1,1,2,2,3,3,4,4,5,5,6,6,7,7,8,8,9,9,10,10,11,11,12,12,13,13,14,14],"right_children":[2,4,6,8,10,12,14,16,18,20,22,24,26,28,30,-1,-1,-1,-1,-1,-1,-1,-1,-1,-1,-1,-1,-1,-1,-1,-1],"split_conditions":[4.2790276E-1,9.305455E-2,9.305455E-2,4.6567753E-2,1.07666664E-1,7.88E-2,1.07666664E-1,-1.17612E5,1E0,2.4508417E-1,3.917E-1,1E0,8.0163784E-2,5.7879724E-2,1E0,1.0564947E-2,-6.4123212E-3,1.5389037E-2,-6.387359E-3,-1.4670092E-2,-4.545173E-2,3.706555E-3,-1.1962774E-1,-4.3070475E-3,-2.0908492E-2,3.4415748E-2,6.8125683E-3,-2.3466978E-2,-3.879734E-2,-5.9760655E-3,3.632867E-2],"split_indices":[108,105,105,105,105,105,105,106,0,107,46,0,105,107,75,0,0,0,0,0,0,0,0,0,0,0,0,0,0,0,0],"split_type":[0,0,0,0,0,0,0,0,0,0,0,0,0,0,0,0,0,0,0,0,0,0,0,0,0,0,0,0,0,0,0],"sum_hessian":[8.068492E4,3.2390684E4,4.8294234E4,2.9949342E4,2.441343E3,4.4009406E4,4.28483E3,9.603077E3,2.0346264E4,1.1798188E3,1.261524E3,4.1259062E4,2.75034E3,2.9090562E3,1.3757738E3,4.3766523E3,5.2264253E3,1.7736496E4,2.609767E3,8.0763135E2,3.7218756E2,1.2498438E3,1.168028E1,3.724281E4,4.0162546E3,1.8149816E3,9.353586E2,1.3599323E3,1.5491239E3,1.2183518E3,1.5742198E2],"tree_param":{"num_deleted":"0","num_feature":"109","num_nodes":"31","size_leaf_vector":"1"}},{"base_weights":[7.091279E-3,9.990233E-2,-1.4075932E-1,2.0523302E-1,1.3801361E-2,-5.934917E-2,-2.7467605E-1,3.6511856E-1,7.9759456E-2,8.543094E-2,-1.5631777E-1,7.319734E-2,-1.9917789E-1,-1.9480279E-1,-4.8222038E-1,1.0915662E-2,2.5688866E-2,1.2442166E-2,4.694509E-4,6.222803E-3,-8.318254E-3,-7.1416646E-3,-5.4250907E-2,6.887851E-3,-1.7801365E-2,2.964507E-4,-1.4852508E-2,-2.0478556E-2,-4.260206E-3,-2.148985E-2,-4.6540122E-2],"categories":[],"categories_nodes":[],"categories_segments":[],"categories_sizes":[],"default_left":[1,0,1,0,1,0,1,1,0,0,1,1,0,0,1,0,0,0,0,0,0,0,0,0,0,0,0,0,0,0,0],"id":40,"left_children":[1,3,5,7,9,11,13,15,17,19,21,23,25,27,29,-1,-1,-1,-1,-1,-1,-1,-1,-1,-1,-1,-1,-1,-1,-1,-1],"loss_changes":[1.1111918E3,4.5117215E2,3.404489E2,4.488573E2,3.3358246E2,3.6000348E2,1.9562903E2,2.1459924E2,1.4918402E2,1.8931476E2,1.0142241E2,2.7638092E2,1.8974985E2,2.0068387E2,7.6742676E1,0E0,0E0,0E0,0E0,0E0,0E0,0E0,0E0,0E0,0E0,0E0,0E0,0E0,0E0,0E0,0E0],"parents":[2147483647,0,0,1,1,2,2,3,3,4,4,5,5,6,6,7,7,8,8,9,9,10,10,11,11,12,12,13,13,14,14],"right_children":[2,4,6,8,10,12,14,16,18,20,22,24,26,28,30,-1,-1,-1,-1,-1,-1,-1,-1,-1,-1,-1,-1,-1,-1,-1,-1],"split_conditions":[5.1529616E-1,-5.8806E4,2.961748E-1,4.545E5,6.08E-2,1.7418E4,1.8780923E-1,2.38725E4,9.22E2,9.4940595E-2,9.985E-1,9.045E5,1E0,1.4652E4,9.886E-1,1.0915662E-2,2.5688866E-2,1.2442166E-2,4.694509E-4,6.222803E-3,-8.318254E-3,-7.1416646E-3,-5.4250907E-2,6.887851E-3,-1.7801365E-2,2.964507E-4,-1.4852508E-2,-2.0478556E-2,-4.260206E-3,-2.148985E-2,-4.6540122E-2],"split_indices":[108,106,38,8,41,15,107,7,16,105,43,8,1,15,61,0,0,0,0,0,0,0,0,0,0,0,0,0,0,0,0],"split_type":[0,0,0,0,0,0,0,0,0,0,0,0,0,0,0,0,0,0,0,0,0,0,0,0,0,0,0,0,0,0,0],"sum_hessian":[8.097582E4,4.9747734E4,3.1228088E4,2.2374611E4,2.7373123E4,1.9422361E4,1.1805726E4,9.837368E3,1.2537243E4,1.926288E4,8.1102427E3,9.971063E3,9.451299E3,8.526318E3,3.279408E3,4.950781E3,4.886588E3,3.6836792E3,8.853563E3,1.6678443E4,2.5844373E3,7.9953066E3,1.1493587E2,8.66799E3,1.3030734E3,3.0533845E3,6.397914E3,2.879988E3,5.64633E3,2.9380159E3,3.413922E2],"tree_param":{"num_deleted":"0","num_feature":"109","num_nodes":"31","size_leaf_vector":"1"}},{"base_weights":[4.9904065E-4,1.0584321E-1,-1.3750027E-1,1.5647116E-1,-9.711467E-2,2.7877218E-3,-2.2125584E-1,3.064155E-1,5.9243463E-2,8.31354E-2,-2.3623095E-1,1.987784E-1,-1.54328E-1,-1.6361156E-1,-4.445922E-1,5.249113E-3,2.0725233E-2,5.4168007E-3,-1.0054933E-2,6.050808E-3,-2.0943012E-2,3.924111E-2,-1.3061981E-2,1.59303E-2,-1.292984E-3,3.6990996E-3,-1.1808614E-2,-5.839554E-3,-2.4165085E-2,-6.998442E-3,-2.6666528E-2],"categories":[],"categories_nodes":[],"categories_segments":[],"categories_sizes":[],"default_left":[1,1,0,0,0,0,0,1,0,1,0,1,0,0,0,0,0,0,0,0,0,0,0,0,0,0,0,0,0,0,0],"id":41,"left_children":[1,3,5,7,9,11,13,15,17,19,21,23,25,27,29,-1,-1,-1,-1,-1,-1,-1,-1,-1,-1,-1,-1,-1,-1,-1,-1],"loss_changes":[1.1735563E3,4.7041815E2,4.1062195E2,5.3415155E2,2.2922345E2,4.0235516E2,2.8164307E2,3.1375867E2,2.841237E2,7.577867E1,1.3194443E2,1.565061E2,1.3553583E2,2.60309E2,1.2126239E2,0E0,0E0,0E0,0E0,0E0,0E0,0E0,0E0,0E0,0E0,0E0,0E0,0E0,0E0,0E0,0E0],"parents":[2147483647,0,0,1,1,2,2,3,3,4,4,5,5,6,6,7,7,8,8,9,9,10,10,11,11,12,12,13,13,14,14],"right_children":[2,4,6,8,10,12,14,16,18,20,22,24,26,28,30,-1,-1,-1,-1,-1,-1,-1,-1,-1,-1,-1,-1,-1,-1,-1,-1],"split_conditions":[4.3473324E-1,6.795E5,1E0,-5.8806E4,-1.345995E5,1E0,1E0,4.661839E-2,9.305455E-2,7.284821E-1,7.335E4,1.0952625E-1,5.7879724E-2,6.749076E-1,-1.332945E5,5.249113E-3,2.0725233E-2,5.4168007E-3,-1.0054933E-2,6.050808E-3,-2.0943012E-2,3.924111E-2,-1.3061981E-2,1.59303E-2,-1.292984E-3,3.6990996E-3,-1.1808614E-2,-5.839554E-3,-2.4165085E-2,-6.998442E-3,-2.6666528E-2],"split_indices":[40,8,1,106,106,2,2,105,105,39,5,38,107,108,106,0,0,0,0,0,0,0,0,0,0,0,0,0,0,0,0],"split_type":[0,0,0,0,0,0,0,0,0,0,0,0,0,0,0,0,0,0,0,0,0,0,0,0,0,0,0,0,0,0,0],"sum_hessian":[8.072458E4,4.577878E4,3.4945793E4,3.6639312E4,9.139468E3,1.306436E4,2.1881434E4,1.441161E4,2.2227703E4,3.981336E3,5.158132E3,5.812907E3,7.251453E3,1.7393748E4,4.4876846E3,5.0334062E3,9.378204E3,1.8701717E4,3.525987E3,3.7026887E3,2.7864716E2,1.2259146E2,5.0355405E3,3.7905264E3,2.0223806E3,1.9135568E3,5.3378965E3,1.5172946E4,2.2208018E3,1.01295685E3,3.4747278E3],"tree_param":{"num_deleted":"0","num_feature":"109","num_nodes":"31","size_leaf_vector":"1"}},{"base_weights":[-5.214654E-5,1.5071167E-1,-8.371573E-2,2.5350204E-1,6.240926E-2,5.0610144E-2,-1.604492E-1,5.5586636E-1,2.2053275E-1,1.1800426E-1,-2.0863004E-1,2.2770579E-1,-9.385197E-2,-1.322207E-1,-5.4821354E-1,3.8711883E-2,2.3228297E-2,1.3691842E-2,3.2987413E-3,1.7142402E-2,2.8517589E-3,2.3198088E-3,-1.6684175E-2,1.8092982E-2,7.5299955E-5,2.670269E-4,-1.5909892E-2,-7.850157E-3,1.1692546E-2,-3.725456E-2,-1.3119094E-2],"categories":[],"categories_nodes":[],"categories_segments":[],"categories_sizes":[],"default_left":[1,0,0,0,0,0,0,0,0,0,0,1,0,0,1,0,0,0,0,0,0,0,0,0,0,0,0,0,0,0,0],"id":42,"left_children":[1,3,5,7,9,11,13,15,17,19,21,23,25,27,29,-1,-1,-1,-1,-1,-1,-1,-1,-1,-1,-1,-1,-1,-1,-1,-1],"loss_changes":[1.0161848E3,2.609552E2,5.340464E2,1.3231921E2,2.3309157E2,4.8195535E2,3.6087323E2,2.5669922E1,9.868945E1,1.7593289E2,8.3985985E1,2.5682077E2,2.3088959E2,2.789035E2,1.25706665E2,0E0,0E0,0E0,0E0,0E0,0E0,0E0,0E0,0E0,0E0,0E0,0E0,0E0,0E0,0E0,0E0],"parents":[2147483647,0,0,1,1,2,2,3,3,4,4,5,5,6,6,7,7,8,8,9,9,10,10,11,11,12,12,13,13,14,14],"right_children":[2,4,6,8,10,12,14,16,18,